{"learner":{"attributes":{"best_iteration":"132","best_score":"1.059116443603792","scikit_learn":"{\"_estimator_type\": \"regressor\"}"},"feature_names":["profundidad_actual_mm","desgaste_rolling_7d","tajo_enc","payload_acum_normalizado","vibracion_g","horas_operacion","posicion_riesgo","ratio_desgaste","desgaste_diario"],"feature_types":["float","float","int","float","float","float","int","float","float"],"gradient_booster":{"model":{"gbtree_model_param":{"num_parallel_tree":"1","num_trees":"153"},"iteration_indptr":[0,1,2,3,4,5,6,7,8,9,10,11,12,13,14,15,16,17,18,19,20,21,22,23,24,25,26,27,28,29,30,31,32,33,34,35,36,37,38,39,40,41,42,43,44,45,46,47,48,49,50,51,52,53,54,55,56,57,58,59,60,61,62,63,64,65,66,67,68,69,70,71,72,73,74,75,76,77,78,79,80,81,82,83,84,85,86,87,88,89,90,91,92,93,94,95,96,97,98,99,100,101,102,103,104,105,106,107,108,109,110,111,112,113,114,115,116,117,118,119,120,121,122,123,124,125,126,127,128,129,130,131,132,133,134,135,136,137,138,139,140,141,142,143,144,145,146,147,148,149,150,151,152,153],"tree_info":[0,0,0,0,0,0,0,0,0,0,0,0,0,0,0,0,0,0,0,0,0,0,0,0,0,0,0,0,0,0,0,0,0,0,0,0,0,0,0,0,0,0,0,0,0,0,0,0,0,0,0,0,0,0,0,0,0,0,0,0,0,0,0,0,0,0,0,0,0,0,0,0,0,0,0,0,0,0,0,0,0,0,0,0,0,0,0,0,0,0,0,0,0,0,0,0,0,0,0,0,0,0,0,0,0,0,0,0,0,0,0,0,0,0,0,0,0,0,0,0,0,0,0,0,0,0,0,0,0,0,0,0,0,0,0,0,0,0,0,0,0,0,0,0,0,0,0,0,0,0,0,0,0],"trees":[{"base_weights":[-7.949391E-2,3.0434902E1,-5.0699356E1,1.0356867E2,2.9947113E1,-4.661842E1,-5.360071E1,8.146072E1,1.3174237E2,3.4609825E1,2.4717773E1,-2.2107752E1,-4.726098E1,-5.3001385E1,-6.416182E1,3.48257E0,4.1946673E0,1.500511E2,5.5700994E0,4.3006287E1,3.2919125E1,2.6073547E1,1.1653462E1,-1.1308007E1,-2.5793707E1,-4.3242973E1,-4.8453686E1,-5.1634136E1,-5.5062164E1,-3.055871E0,-3.5103917E0,1.2172663E2,7.910463E0,5.414257E1,4.1150185E1,3.5296593E1,3.1432972E1,2.778157E1,2.3324764E1,1.5231406E1,2.5537567E0,-6.491316E-1,-4.1147813E-1,-2.8812902E1,-2.1345186E1,-3.8974148E1,-4.44338E1,-4.727419E1,-4.9232555E1,-2.544156E0,-2.62409E0,-2.713557E0,-2.8315408E0,4.1459856E0,6.453163E0,2.884524E0,2.5205207E0,2.2115798E0,1.981754E0,1.8308398E0,1.7190615E0,1.6214279E0,1.528241E0,1.4349893E0,1.33334E0,1.2187175E0,1.0671687E0,8.476645E-1,6.306185E-1,3.4396422E-1,-9.080093E-2,-1.5829837E0,-1.3724917E0,-1.0856996E0,-6.0044885E-1,-1.8593273E0,-2.0358517E0,-2.1417193E0,-2.2529309E0,-2.3302212E0,-2.3870866E0,-2.4358659E0,-2.4817567E0],"categories":[],"categories_nodes":[],"categories_segments":[],"categories_sizes":[],"default_left":[0,0,0,0,0,0,0,0,0,0,0,0,0,0,0,0,0,0,0,0,0,0,0,0,0,0,0,0,0,0,0,0,0,0,0,0,0,0,0,0,0,0,0,0,0,0,0,0,0,0,0,0,0,0,0,0,0,0,0,0,0,0,0,0,0,0,0,0,0,0,0,0,0,0,0,0,0,0,0,0,0,0,0],"id":0,"left_children":[1,3,5,7,9,11,13,15,17,19,21,23,25,27,29,-1,-1,31,-1,33,35,37,39,41,43,45,47,49,51,-1,-1,53,-1,55,57,59,61,63,65,67,69,-1,-1,71,73,75,77,79,81,-1,-1,-1,-1,-1,-1,-1,-1,-1,-1,-1,-1,-1,-1,-1,-1,-1,-1,-1,-1,-1,-1,-1,-1,-1,-1,-1,-1,-1,-1,-1,-1,-1,-1],"loss_changes":[2.5648654E8,3.692664E6,7.36928E5,4.16531E5,2.50848E6,4.0778E5,2.27576E5,5.259E3,9.49795E4,7.7086E5,8.58966E5,2.61765E4,1.19112E5,9.4464E4,3.1681E4,0E0,0E0,1.65305E4,0E0,1.86172E5,1.58896E5,2.05696E5,1.4852262E5,7.725801E2,6.0283125E3,2.7739E4,1.5572E4,1.0552E4,1.3992E4,0E0,0E0,3.806875E2,0E0,1.428175E4,3.4734E4,1.9778E4,2.3098E4,2.697E4,3.4518E4,1.45524375E4,2.437714E4,0E0,0E0,2.5809375E2,4.3828125E2,2.44425E3,2.585E3,2.02E2,4E0,0E0,0E0,0E0,0E0,0E0,0E0,0E0,0E0,0E0,0E0,0E0,0E0,0E0,0E0,0E0,0E0,0E0,0E0,0E0,0E0,0E0,0E0,0E0,0E0,0E0,0E0,0E0,0E0,0E0,0E0,0E0,0E0,0E0,0E0],"parents":[2147483647,0,0,1,1,2,2,3,3,4,4,5,5,6,6,7,7,8,8,9,9,10,10,11,11,12,12,13,13,14,14,17,17,19,19,20,20,21,21,22,22,23,23,24,24,25,25,26,26,27,27,28,28,31,31,33,33,34,34,35,35,36,36,37,37,38,38,39,39,40,40,43,43,44,44,45,45,46,46,47,47,48,48],"right_children":[2,4,6,8,10,12,14,16,18,20,22,24,26,28,30,-1,-1,32,-1,34,36,38,40,42,44,46,48,50,52,-1,-1,54,-1,56,58,60,62,64,66,68,70,-1,-1,72,74,76,78,80,82,-1,-1,-1,-1,-1,-1,-1,-1,-1,-1,-1,-1,-1,-1,-1,-1,-1,-1,-1,-1,-1,-1,-1,-1,-1,-1,-1,-1,-1,-1,-1,-1,-1,-1],"split_conditions":[6.642E-3,4.7434783E-3,8.782016E-3,9.999766E-1,5.5020475E-3,7.878667E-3,9.404706E-3,9.9988157E-1,6.8E-1,5.2965474E-3,5.8051907E-3,1E0,8.519227E-3,9.0014525E-3,9.887632E-3,3.48257E0,4.1946673E0,9.9998784E-1,5.5700994E0,5.073032E-3,5.407976E-3,5.610221E-3,6.0774195E-3,3E0,9.99924E-1,1.6533953E-1,8.662285E-3,8.887762E-3,9.154452E-3,-3.055871E0,-3.5103917E0,6E0,7.910463E0,4.959048E-3,5.2070953E-3,5.355658E-3,5.4546664E-3,5.5536665E-3,5.6832717E-3,5.9211426E-3,6.306667E-3,-6.491316E-1,-4.1147813E-1,9.996702E-1,9.9998784E-1,8.148824E-3,8.40037E-3,8.595252E-3,8.72138E-3,-2.544156E0,-2.62409E0,-2.713557E0,-2.8315408E0,4.1459856E0,6.453163E0,2.884524E0,2.5205207E0,2.2115798E0,1.981754E0,1.8308398E0,1.7190615E0,1.6214279E0,1.528241E0,1.4349893E0,1.33334E0,1.2187175E0,1.0671687E0,8.476645E-1,6.306185E-1,3.4396422E-1,-9.080093E-2,-1.5829837E0,-1.3724917E0,-1.0856996E0,-6.0044885E-1,-1.8593273E0,-2.0358517E0,-2.1417193E0,-2.2529309E0,-2.3302212E0,-2.3870866E0,-2.4358659E0,-2.4817567E0],"split_indices":[1,1,1,7,1,1,1,7,4,1,1,2,1,1,1,0,0,7,0,1,1,1,1,5,7,8,1,1,1,0,0,5,0,1,1,1,1,1,1,1,1,0,0,7,7,1,1,1,1,0,0,0,0,0,0,0,0,0,0,0,0,0,0,0,0,0,0,0,0,0,0,0,0,0,0,0,0,0,0,0,0,0,0],"split_type":[0,0,0,0,0,0,0,0,0,0,0,0,0,0,0,0,0,0,0,0,0,0,0,0,0,0,0,0,0,0,0,0,0,0,0,0,0,0,0,0,0,0,0,0,0,0,0,0,0,0,0,0,0,0,0,0,0,0,0,0,0,0,0,0,0,0,0,0,0,0,0,0,0,0,0,0,0,0,0,0,0,0,0],"sum_hessian":[1.66048E5,1.03598E5,6.245E4,6.85E2,1.02913E5,2.5957E4,3.6493E4,3.86E2,2.99E2,5.4401E4,4.8512E4,6.64E2,2.5293E4,3.4539E4,1.954E3,7.1E1,3.15E2,1.54E2,1.45E2,9.114E3,4.5287E4,4.395E4,4.562E3,1.7E2,4.94E2,5.798E3,1.9495E4,2.0779E4,1.376E4,1.307E3,6.47E2,3.8E1,1.16E2,1.298E3,7.816E3,1.7411E4,2.7876E4,2.7101E4,1.6849E4,3.274E3,1.288E3,1.08E2,6.2E1,2.91E2,2.03E2,1.272E3,4.526E3,7.778E3,1.1717E4,1.105E4,9.729E3,9.171E3,4.589E3,8E0,3E1,6.58E2,6.4E2,2.567E3,5.249E3,7.113E3,1.0298E4,1.2968E4,1.4908E4,1.4847E4,1.2254E4,1.1007E4,5.842E3,1.972E3,1.302E3,6.47E2,6.41E2,8.7E1,2.04E2,1.94E2,9E0,6.39E2,6.33E2,1.291E3,3.235E3,3.239E3,4.539E3,5.193E3,6.524E3],"tree_param":{"num_deleted":"0","num_feature":"9","num_nodes":"83","size_leaf_vector":"1"}},{"base_weights":[7.909606E-3,2.889919E1,-4.8157684E1,9.783772E1,2.84475E1,-4.4519356E1,-5.1106045E1,7.739055E1,1.237566E2,3.3047462E1,2.3665878E1,-2.1155313E1,-4.509415E1,-5.050448E1,-6.103359E1,3.3124177E0,3.9911938E0,1.4138074E2,5.1955314E0,4.1226585E1,3.1485968E1,2.5020893E1,1.1919847E1,-1.0642007E1,-2.4842989E1,-4.1072174E1,-4.6177197E1,-4.934657E1,-5.2556828E1,-2.9040277E0,-3.3333242E0,7.532613E0,5.921832E0,5.137709E1,3.937083E1,3.377144E1,3.0064798E1,2.6669245E1,2.255311E1,1.5086603E1,2.3053198E0,-1.2110208E1,-3.973461E-1,-2.7556557E1,-2.0984375E1,-3.701652E1,-4.2207405E1,-4.4987255E1,-4.694903E1,-2.4304373E0,-2.5087945E0,-2.5921557E0,-2.6985185E0,2.7410817E0,2.3929327E0,2.1311479E0,1.907038E0,1.7558495E0,1.6461651E0,1.5513864E0,1.4636194E0,1.377378E0,1.2851357E0,1.1756006E0,1.0407579E0,8.317672E-1,5.9875876E-1,3.2152328E-1,-8.613613E-2,-5.7418436E-1,-7.694732E-1,-1.5183012E0,-1.3125187E0,-1.0704858E0,-5.6863993E-1,-1.7637478E0,-1.9351234E0,-2.034655E0,-2.1401212E0,-2.2190537E0,-2.2748232E0,-2.321946E0,-2.3681748E0],"categories":[],"categories_nodes":[],"categories_segments":[],"categories_sizes":[],"default_left":[0,0,0,0,0,0,0,0,0,0,0,0,0,0,0,0,0,0,0,0,0,0,0,0,0,0,0,0,0,0,0,0,0,0,0,0,0,0,0,0,0,0,0,0,0,0,0,0,0,0,0,0,0,0,0,0,0,0,0,0,0,0,0,0,0,0,0,0,0,0,0,0,0,0,0,0,0,0,0,0,0,0,0],"id":1,"left_children":[1,3,5,7,9,11,13,15,17,19,21,23,25,27,29,-1,-1,31,-1,33,35,37,39,41,43,45,47,49,51,-1,-1,-1,-1,53,55,57,59,61,63,65,67,69,-1,71,73,75,77,79,81,-1,-1,-1,-1,-1,-1,-1,-1,-1,-1,-1,-1,-1,-1,-1,-1,-1,-1,-1,-1,-1,-1,-1,-1,-1,-1,-1,-1,-1,-1,-1,-1,-1,-1],"loss_changes":[2.3099573E8,3.228144E6,6.65344E5,3.48131E5,2.266592E6,3.73276E5,2.02192E5,5E3,8.8816E4,6.69692E5,8.04222E5,2.57465E4,1.16568E5,7.4424E4,2.87015E4,0E0,0E0,1.489025E4,0E0,1.56555E5,1.42284E5,1.83742E5,1.5920056E5,5.981758E2,4.6103125E3,2.5037E4,1.7548E4,1.0244E4,8.972E3,0E0,0E0,0E0,0E0,1.3097E4,2.6857E4,1.8134E4,1.9848E4,2.2346E4,2.9762E4,1.8755062E4,2.1562844E4,5.0691406E1,0E0,2.5409375E2,6.0766406E2,2.362125E3,2.311E3,5.8E2,5.34E2,0E0,0E0,0E0,0E0,0E0,0E0,0E0,0E0,0E0,0E0,0E0,0E0,0E0,0E0,0E0,0E0,0E0,0E0,0E0,0E0,0E0,0E0,0E0,0E0,0E0,0E0,0E0,0E0,0E0,0E0,0E0,0E0,0E0,0E0],"parents":[2147483647,0,0,1,1,2,2,3,3,4,4,5,5,6,6,7,7,8,8,9,9,10,10,11,11,12,12,13,13,14,14,17,17,19,19,20,20,21,21,22,22,23,23,24,24,25,25,26,26,27,27,28,28,33,33,34,34,35,35,36,36,37,37,38,38,39,39,40,40,41,41,43,43,44,44,45,45,46,46,47,47,48,48],"right_children":[2,4,6,8,10,12,14,16,18,20,22,24,26,28,30,-1,-1,32,-1,34,36,38,40,42,44,46,48,50,52,-1,-1,-1,-1,54,56,58,60,62,64,66,68,70,-1,72,74,76,78,80,82,-1,-1,-1,-1,-1,-1,-1,-1,-1,-1,-1,-1,-1,-1,-1,-1,-1,-1,-1,-1,-1,-1,-1,-1,-1,-1,-1,-1,-1,-1,-1,-1,-1,-1],"split_conditions":[1.3284E-1,9.486956E-2,1.7600976E-1,2.8499332E1,1.0991619E-1,1.5757333E-1,1.8809412E-1,2.8496624E1,5.2E-1,1.0577844E-1,1.1555745E-1,1E0,1.7038254E-1,1.8054667E-1,1.9775262E-1,3.3124177E0,3.9911938E0,9.509E-1,5.1955314E0,1.01460636E-1,1.0804953E-1,1.119886E-1,1.21548384E-1,3E0,2.8497833E1,1.6533953E-1,1.734E-1,1.7818047E-1,1.8345703E-1,-2.9040277E0,-3.3333242E0,7.532613E0,5.921832E0,9.918095E-2,1.037272E-1,1.06947616E-1,1.0895571E-1,1.1087524E-1,1.1341524E-1,1.1842286E-1,1.2613334E-1,1.61E0,-3.973461E-1,2.84906E1,2.8499653E1,1.6297647E-1,1.680074E-1,1.7213143E-1,1.7466788E-1,-2.4304373E0,-2.5087945E0,-2.5921557E0,-2.6985185E0,2.7410817E0,2.3929327E0,2.1311479E0,1.907038E0,1.7558495E0,1.6461651E0,1.5513864E0,1.4636194E0,1.377378E0,1.2851357E0,1.1756006E0,1.0407579E0,8.317672E-1,5.9875876E-1,3.2152328E-1,-8.613613E-2,-5.7418436E-1,-7.694732E-1,-1.5183012E0,-1.3125187E0,-1.0704858E0,-5.6863993E-1,-1.7637478E0,-1.9351234E0,-2.034655E0,-2.1401212E0,-2.2190537E0,-2.2748232E0,-2.321946E0,-2.3681748E0],"split_indices":[8,8,8,0,8,8,8,0,4,8,8,2,8,8,8,0,0,3,0,8,8,8,8,5,0,8,8,8,8,0,0,0,0,8,8,8,8,8,8,8,8,4,0,0,0,8,8,8,8,0,0,0,0,0,0,0,0,0,0,0,0,0,0,0,0,0,0,0,0,0,0,0,0,0,0,0,0,0,0,0,0,0,0],"split_type":[0,0,0,0,0,0,0,0,0,0,0,0,0,0,0,0,0,0,0,0,0,0,0,0,0,0,0,0,0,0,0,0,0,0,0,0,0,0,0,0,0,0,0,0,0,0,0,0,0,0,0,0,0,0,0,0,0,0,0,0,0,0,0,0,0,0,0,0,0,0,0,0,0,0,0,0,0,0,0,0,0,0,0],"sum_hessian":[1.65995E5,1.03758E5,6.2237E4,6.74E2,1.03084E5,2.7866E4,3.4371E4,3.79E2,2.95E2,5.2537E4,5.0547E4,6.7E2,2.7196E4,3.2413E4,1.958E3,7.3E1,3.06E2,1.53E2,1.42E2,8.418E3,4.4119E4,4.5318E4,5.229E3,1.75E2,4.95E2,5.778E3,2.1418E4,2.0738E4,1.1675E4,1.292E3,6.66E2,1.05E2,4.8E1,1.297E3,7.121E3,1.6907E4,2.7212E4,2.7164E4,1.8154E4,3.933E3,1.296E3,1.11E2,6.4E1,2.87E2,2.08E2,1.271E3,4.507E3,8.45E3,1.2968E4,1.1006E4,9.732E3,7.783E3,3.892E3,6.48E2,6.49E2,1.945E3,5.176E3,6.521E3,1.0386E4,1.2267E4,1.4945E4,1.4217E4,1.2947E4,1.1691E4,6.463E3,2.623E3,1.31E3,6.4E2,6.56E2,9.7E1,1.4E1,8.4E1,2.03E2,1.98E2,1E1,6.36E2,6.35E2,1.291E3,3.216E3,3.898E3,4.552E3,5.864E3,7.104E3],"tree_param":{"num_deleted":"0","num_feature":"9","num_nodes":"83","size_leaf_vector":"1"}},{"base_weights":[1.5937496E-2,2.7443604E1,-4.574458E1,9.101221E1,2.7027416E1,-4.1878708E1,-4.827215E1,7.364002E1,1.1481489E2,3.1141142E1,2.2189047E1,-1.9781736E1,-4.250951E1,-4.7569664E1,-5.5660625E1,3.149464E0,3.8038533E0,6.6244063E0,4.8661475E0,3.8244286E1,2.9510603E1,2.3439463E1,1.0535411E1,-1.0158875E1,-2.3374538E1,-3.8406826E1,-4.346818E1,-4.6326466E1,-4.918371E1,-5.3689266E1,-3.1718347E0,4.6644234E1,3.6305347E1,3.1445673E1,2.8131384E1,2.4901762E1,2.089339E1,1.3764823E1,2.3193352E0,-3.9736497E-1,-1.1555521E1,-2.5927687E1,-1.8914198E1,-3.5190044E1,-3.9665512E1,-4.220234E1,-4.4189293E1,-2.2829509E0,-2.3490894E0,-2.4239519E0,-2.5132403E0,-2.6342268E0,-2.8284438E0,2.6037958E0,2.191341E0,1.9212319E0,1.7484859E0,1.6256287E0,1.5282911E0,1.4450328E0,1.3659786E0,1.2852746E0,1.1910131E0,1.0854963E0,9.4451904E-1,7.650668E-1,5.692133E-1,3.0720502E-1,-8.479728E-2,-5.485911E-1,-7.201106E-1,-1.4258538E0,-1.2264023E0,-9.607194E-1,-5.448899E-1,-1.6772162E0,-1.8371819E0,-1.9336541E0,-2.0150974E0,-2.0710561E0,-2.13172E0,-2.182421E0,-2.228872E0],"categories":[],"categories_nodes":[],"categories_segments":[],"categories_sizes":[],"default_left":[0,0,0,0,0,0,0,0,0,0,0,0,0,0,0,0,0,0,0,0,0,0,0,0,0,0,0,0,0,0,0,0,0,0,0,0,0,0,0,0,0,0,0,0,0,0,0,0,0,0,0,0,0,0,0,0,0,0,0,0,0,0,0,0,0,0,0,0,0,0,0,0,0,0,0,0,0,0,0,0,0,0,0],"id":2,"left_children":[1,3,5,7,9,11,13,15,17,19,21,23,25,27,29,-1,-1,-1,-1,31,33,35,37,39,41,43,45,47,49,51,-1,53,55,57,59,61,63,65,67,-1,69,71,73,75,77,79,81,-1,-1,-1,-1,-1,-1,-1,-1,-1,-1,-1,-1,-1,-1,-1,-1,-1,-1,-1,-1,-1,-1,-1,-1,-1,-1,-1,-1,-1,-1,-1,-1,-1,-1,-1,-1],"loss_changes":[2.0844645E8,2.744768E6,6.06112E5,2.70642E5,2.052688E6,3.42228E5,1.9264E5,5.395E3,7.456925E4,6.44628E5,6.90618E5,2.344175E4,9.244E4,6.6672E4,4.6571E4,0E0,0E0,0E0,0E0,1.6778E5,1.20144E5,1.58884E5,1.2191259E5,4.8690625E2,5.1762812E3,1.6983E4,1.5824E4,6.344E3,8.932E3,4.5545E3,0E0,2.7519E4,2.2593E4,1.671E4,1.5746E4,2.3018E4,2.51425E4,1.18900625E4,1.9944908E4,0E0,2.7206055E1,4.3323438E2,2.3278906E2,2.04825E3,4.9E2,6.09E2,6.36E2,0E0,0E0,0E0,0E0,0E0,0E0,0E0,0E0,0E0,0E0,0E0,0E0,0E0,0E0,0E0,0E0,0E0,0E0,0E0,0E0,0E0,0E0,0E0,0E0,0E0,0E0,0E0,0E0,0E0,0E0,0E0,0E0,0E0,0E0,0E0,0E0],"parents":[2147483647,0,0,1,1,2,2,3,3,4,4,5,5,6,6,7,7,8,8,9,9,10,10,11,11,12,12,13,13,14,14,19,19,20,20,21,21,22,22,23,23,24,24,25,25,26,26,27,27,28,28,29,29,31,31,32,32,33,33,34,34,35,35,36,36,37,37,38,38,40,40,41,41,42,42,43,43,44,44,45,45,46,46],"right_children":[2,4,6,8,10,12,14,16,18,20,22,24,26,28,30,-1,-1,-1,-1,32,34,36,38,40,42,44,46,48,50,52,-1,54,56,58,60,62,64,66,68,-1,70,72,74,76,78,80,82,-1,-1,-1,-1,-1,-1,-1,-1,-1,-1,-1,-1,-1,-1,-1,-1,-1,-1,-1,-1,-1,-1,-1,-1,-1,-1,-1,-1,-1,-1,-1,-1,-1,-1,-1,-1],"split_conditions":[6.642E-3,4.7434783E-3,8.7697385E-3,2.8499332E1,5.506214E-3,7.878667E-3,9.279857E-3,2.8496624E1,5.2E-1,5.3109946E-3,5.8051907E-3,1E0,8.481499E-3,8.968835E-3,9.887632E-3,3.149464E0,3.8038533E0,6.6244063E0,4.8661475E0,5.1273094E-3,5.418143E-3,5.6167142E-3,6.0774195E-3,2.8499653E1,9.999344E-1,8.266391E-3,8.636096E-3,8.86181E-3,9.095119E-3,9.5775E-3,-3.1718347E0,4.959048E-3,5.2390713E-3,5.3705364E-3,5.4653236E-3,5.5615716E-3,5.6980713E-3,5.9211426E-3,6.306667E-3,-3.9736497E-1,1.61E0,2.84927E1,2.8499653E1,8.148824E-3,8.40037E-3,8.555185E-3,8.70019E-3,-2.2829509E0,-2.3490894E0,-2.4239519E0,-2.5132403E0,-2.6342268E0,-2.8284438E0,2.6037958E0,2.191341E0,1.9212319E0,1.7484859E0,1.6256287E0,1.5282911E0,1.4450328E0,1.3659786E0,1.2852746E0,1.1910131E0,1.0854963E0,9.4451904E-1,7.650668E-1,5.692133E-1,3.0720502E-1,-8.479728E-2,-5.485911E-1,-7.201106E-1,-1.4258538E0,-1.2264023E0,-9.607194E-1,-5.448899E-1,-1.6772162E0,-1.8371819E0,-1.9336541E0,-2.0150974E0,-2.0710561E0,-2.13172E0,-2.182421E0,-2.228872E0],"split_indices":[1,1,1,0,1,1,1,0,4,1,1,2,1,1,1,0,0,0,0,1,1,1,1,0,7,1,1,1,1,1,0,1,1,1,1,1,1,1,1,0,4,0,0,1,1,1,1,0,0,0,0,0,0,0,0,0,0,0,0,0,0,0,0,0,0,0,0,0,0,0,0,0,0,0,0,0,0,0,0,0,0,0,0],"split_type":[0,0,0,0,0,0,0,0,0,0,0,0,0,0,0,0,0,0,0,0,0,0,0,0,0,0,0,0,0,0,0,0,0,0,0,0,0,0,0,0,0,0,0,0,0,0,0,0,0,0,0,0,0,0,0,0,0,0,0,0,0,0,0,0,0,0,0,0,0,0,0,0,0,0,0,0,0,0,0,0,0,0,0],"sum_hessian":[1.66077E5,1.03839E5,6.2238E4,6.74E2,1.03165E5,2.4612E4,3.7626E4,3.92E2,2.82E2,5.5755E4,4.741E4,6.84E2,2.3928E4,3.4366E4,3.26E3,7.8E1,3.14E2,1.37E2,1.45E2,1.0405E4,4.535E4,4.2815E4,4.595E3,1.87E2,4.97E2,4.54E3,1.9388E4,1.943E4,1.4936E4,2.607E3,6.53E2,1.947E3,8.458E3,1.8863E4,2.6487E4,2.719E4,1.5625E4,3.298E3,1.297E3,7.5E1,1.12E2,3.13E2,1.84E2,1.285E3,3.255E3,7.058E3,1.233E4,9.661E3,9.769E3,9.07E3,5.866E3,1.947E3,6.6E2,6.59E2,1.288E3,3.259E3,5.199E3,8.509E3,1.0354E4,1.3582E4,1.2905E4,1.5585E4,1.1605E4,1.1093E4,4.532E3,2.001E3,1.297E3,6.64E2,6.33E2,9.7E1,1.5E1,1.03E2,2.1E2,1.76E2,8E0,6.35E2,6.5E2,1.296E3,1.959E3,2.548E3,4.51E3,5.199E3,7.131E3],"tree_param":{"num_deleted":"0","num_feature":"9","num_nodes":"83","size_leaf_vector":"1"}},{"base_weights":[-8.8603785E-3,2.6075617E1,-4.3438023E1,8.8151924E1,2.5679401E1,-3.9600403E1,-4.57352E1,7.4823814E1,1.20758446E2,2.9996775E1,2.151979E1,-1.9137848E1,-4.0231853E1,-4.4954994E1,-5.1654488E1,4.518682E0,6.915714E1,6.75176E0,4.911863E0,3.7595413E1,2.8608065E1,2.270228E1,1.0735727E1,-9.661763E0,-2.227795E1,-3.6081146E1,-4.109648E1,-4.3798893E1,-4.6364246E1,-5.023748E1,-3.0123355E0,2.9940736E0,3.5597794E0,4.6548534E1,3.581577E1,3.0782314E1,2.736433E1,2.425648E1,2.0474722E1,1.3620001E1,2.1034138E0,-1.1262358E1,-7.773464E0,-2.46859E1,-1.8605902E1,-1.5922903E0,-3.6917885E1,-3.9790924E1,-4.178539E1,-2.1589003E0,-2.218493E0,-2.2866724E0,-2.36262E0,-2.4755027E0,-2.6878898E0,2.477256E0,2.1667776E0,1.9252676E0,1.732596E0,1.6012938E0,1.5015434E0,1.4125721E0,1.3316568E0,1.2538655E0,1.1698698E0,1.0731096E0,9.495465E-1,7.7954227E-1,5.816979E-1,2.9077232E-1,-7.691093E-2,-4.91542E-1,-6.580289E-1,-4.199853E-1,-3.3269385E-1,-1.349119E0,-1.164839E0,-9.452731E-1,-5.3271115E-1,-1.7770375E0,-1.8911322E0,-1.954922E0,-2.0123172E0,-2.06175E0,-2.1086771E0],"categories":[],"categories_nodes":[],"categories_segments":[],"categories_sizes":[],"default_left":[0,0,0,0,0,0,0,0,0,0,0,0,0,0,0,0,0,0,0,0,0,0,0,0,0,0,0,0,0,0,0,0,0,0,0,0,0,0,0,0,0,0,0,0,0,0,0,0,0,0,0,0,0,0,0,0,0,0,0,0,0,0,0,0,0,0,0,0,0,0,0,0,0,0,0,0,0,0,0,0,0,0,0,0,0],"id":3,"left_children":[1,3,5,7,9,11,13,15,17,19,21,23,25,27,29,-1,31,-1,-1,33,35,37,39,41,43,45,47,49,51,53,-1,-1,-1,55,57,59,61,63,65,67,69,71,73,75,77,-1,79,81,83,-1,-1,-1,-1,-1,-1,-1,-1,-1,-1,-1,-1,-1,-1,-1,-1,-1,-1,-1,-1,-1,-1,-1,-1,-1,-1,-1,-1,-1,-1,-1,-1,-1,-1,-1,-1],"loss_changes":[1.8795187E8,2.547208E6,5.47032E5,2.764665E5,1.849088E6,3.00544E5,1.77496E5,3.506025E4,4.748025E4,5.3222E5,6.68752E5,2.0610672E4,7.9696E4,5.4024E4,5.2092E4,0E0,2.303625E3,0E0,0E0,1.227E5,1.14712E5,1.63176E5,1.2909056E5,4.4249023E2,4.1784844E3,1.26665E4,1.5162E4,4.784E3,6.51E3,7.297E3,0E0,0E0,0E0,1.02735E4,1.9055E4,1.3556E4,1.688E4,1.9042E4,2.8066E4,1.50303125E4,1.758259E4,1.210332E2,1.4990234E0,3.6807812E2,3.0060938E2,0E0,2.7065E3,4.64E2,8.68E2,0E0,0E0,0E0,0E0,0E0,0E0,0E0,0E0,0E0,0E0,0E0,0E0,0E0,0E0,0E0,0E0,0E0,0E0,0E0,0E0,0E0,0E0,0E0,0E0,0E0,0E0,0E0,0E0,0E0,0E0,0E0,0E0,0E0,0E0,0E0,0E0],"parents":[2147483647,0,0,1,1,2,2,3,3,4,4,5,5,6,6,7,7,8,8,9,9,10,10,11,11,12,12,13,13,14,14,16,16,19,19,20,20,21,21,22,22,23,23,24,24,25,25,26,26,27,27,28,28,29,29,33,33,34,34,35,35,36,36,37,37,38,38,39,39,40,40,41,41,42,42,43,43,44,44,46,46,47,47,48,48],"right_children":[2,4,6,8,10,12,14,16,18,20,22,24,26,28,30,-1,32,-1,-1,34,36,38,40,42,44,46,48,50,52,54,-1,-1,-1,56,58,60,62,64,66,68,70,72,74,76,78,-1,80,82,84,-1,-1,-1,-1,-1,-1,-1,-1,-1,-1,-1,-1,-1,-1,-1,-1,-1,-1,-1,-1,-1,-1,-1,-1,-1,-1,-1,-1,-1,-1,-1,-1,-1,-1,-1,-1],"split_conditions":[6.642E-3,4.7434783E-3,8.757953E-3,2.8499653E1,5.4901903E-3,7.878667E-3,9.218214E-3,2.5282E0,7.9E-1,5.280262E-3,5.777872E-3,1E0,8.461048E-3,8.945495E-3,9.887632E-3,4.518682E0,2.8496624E1,6.75176E0,4.911863E0,5.073032E-3,5.393571E-3,5.59299E-3,6.0774195E-3,9.509E-1,2.8497833E1,8.148824E-3,8.6168945E-3,8.842931E-3,9.064309E-3,9.5775E-3,-3.0123355E0,2.9940736E0,3.5597794E0,4.959048E-3,5.18636E-3,5.33822E-3,5.441E-3,5.5365E-3,5.6604287E-3,5.872E-3,6.306667E-3,1E0,1.6215E0,2.8491802E1,2.8499653E1,-1.5922903E0,8.343125E-3,8.537861E-3,8.685748E-3,-2.1589003E0,-2.218493E0,-2.2866724E0,-2.36262E0,-2.4755027E0,-2.6878898E0,2.477256E0,2.1667776E0,1.9252676E0,1.732596E0,1.6012938E0,1.5015434E0,1.4125721E0,1.3316568E0,1.2538655E0,1.1698698E0,1.0731096E0,9.495465E-1,7.7954227E-1,5.816979E-1,2.9077232E-1,-7.691093E-2,-4.91542E-1,-6.580289E-1,-4.199853E-1,-3.3269385E-1,-1.349119E0,-1.164839E0,-9.452731E-1,-5.3271115E-1,-1.7770375E0,-1.8911322E0,-1.954922E0,-2.0123172E0,-2.06175E0,-2.1086771E0],"split_indices":[1,1,1,0,1,1,1,3,4,1,1,2,1,1,1,0,0,0,0,1,1,1,1,3,0,1,1,1,1,1,0,0,0,1,1,1,1,1,1,1,1,6,3,0,0,0,1,1,1,0,0,0,0,0,0,0,0,0,0,0,0,0,0,0,0,0,0,0,0,0,0,0,0,0,0,0,0,0,0,0,0,0,0,0,0],"split_type":[0,0,0,0,0,0,0,0,0,0,0,0,0,0,0,0,0,0,0,0,0,0,0,0,0,0,0,0,0,0,0,0,0,0,0,0,0,0,0,0,0,0,0,0,0,0,0,0,0,0,0,0,0,0,0,0,0,0,0,0,0,0,0,0,0,0,0,0,0,0,0,0,0,0,0,0,0,0,0,0,0,0,0,0,0],"sum_hessian":[1.65912E5,1.03655E5,6.2257E4,6.56E2,1.02999E5,2.3319E4,3.8938E4,4.68E2,1.88E2,5.0538E4,5.2461E4,6.99E2,2.262E4,3.4411E4,4.527E3,1.21E2,3.47E2,1.12E2,7.6E1,7.805E3,4.2733E4,4.7276E4,5.185E3,1.75E2,5.24E2,3.907E3,1.8713E4,1.8921E4,1.549E4,3.892E3,6.35E2,6.8E1,2.79E2,1.29E3,6.515E3,1.5541E4,2.7192E4,2.7841E4,1.9435E4,3.886E3,1.299E3,9.2E1,8.3E1,3.13E2,2.11E2,6.51E2,3.256E3,6.484E3,1.2229E4,9.101E3,9.82E3,9.088E3,6.402E3,3.238E3,6.54E2,6.6E2,6.3E2,1.958E3,4.557E3,5.838E3,9.703E3,1.2269E4,1.4923E4,1.4223E4,1.3618E4,1.1661E4,7.774E3,1.947E3,1.939E3,6.43E2,6.56E2,5.6E1,3.6E1,4.9E1,3.4E1,1.11E2,2.02E2,2.02E2,9E0,1.307E3,1.949E3,2.607E3,3.877E3,5.102E3,7.127E3],"tree_param":{"num_deleted":"0","num_feature":"9","num_nodes":"85","size_leaf_vector":"1"}},{"base_weights":[1.2132362E-2,2.4787357E1,-4.1295685E1,8.38703E1,2.4407509E1,-3.8235054E1,-4.387134E1,1.0501698E2,6.488809E1,2.8009518E1,1.9934904E1,-1.8285799E1,-3.8708538E1,-4.3344448E1,-5.23808E1,1.1743932E2,4.4854E0,2.8272407E0,3.3187408E0,3.4533287E1,2.655376E1,2.1061872E1,9.486875E0,-9.193489E0,-2.1094114E1,-3.5437016E1,-3.969711E1,-4.2302696E1,-4.499885E1,-2.4933898E0,-2.859093E0,6.376026E0,4.5805926E0,4.210342E1,3.2773087E1,2.8278652E1,2.5251143E1,2.2304863E1,1.8675673E1,1.2385252E1,2.0934725E0,-1.1143284E1,-3.5247773E-1,-2.323788E1,-1.722734E1,-3.1698141E1,-3.6357834E1,-3.872169E1,-4.0327606E1,-2.087676E0,-2.150933E0,-2.216276E0,-2.3071916E0,2.3489754E0,1.9801549E0,1.7522221E0,1.5872802E0,1.4642133E0,1.3724746E0,1.2970277E0,1.2263788E0,1.1529073E0,1.0651292E0,9.686248E-1,8.4055394E-1,6.898414E-1,5.1169366E-1,2.7526677E-1,-7.1839325E-2,-5.1864064E-1,-7.1839213E-1,-1.0945957E0,-1.2833157E0,-8.761781E-1,-3.6097765E-1,-1.5129812E0,-1.6565939E0,-1.7617568E0,-1.8505297E0,-1.9116043E0,-1.9562092E0,-1.994881E0,-2.0337207E0],"categories":[],"categories_nodes":[],"categories_segments":[],"categories_sizes":[],"default_left":[0,0,0,0,0,0,0,0,0,0,0,0,0,0,0,0,0,0,0,0,0,0,0,0,0,0,0,0,0,0,0,0,0,0,0,0,0,0,0,0,0,0,0,0,0,0,0,0,0,0,0,0,0,0,0,0,0,0,0,0,0,0,0,0,0,0,0,0,0,0,0,0,0,0,0,0,0,0,0,0,0,0,0],"id":4,"left_children":[1,3,5,7,9,11,13,15,17,19,21,23,25,27,29,31,-1,-1,-1,33,35,37,39,41,43,45,47,49,51,-1,-1,-1,-1,53,55,57,59,61,63,65,67,69,-1,71,73,75,77,79,81,-1,-1,-1,-1,-1,-1,-1,-1,-1,-1,-1,-1,-1,-1,-1,-1,-1,-1,-1,-1,-1,-1,-1,-1,-1,-1,-1,-1,-1,-1,-1,-1,-1,-1],"loss_changes":[1.7003043E8,2.328668E6,4.89336E5,2.59304E5,1.66188E6,2.68224E5,1.49344E5,4.877825E4,6.00875E2,5.41888E5,5.41852E5,1.6706625E4,8.8528E4,5.298E4,2.087E4,3.229875E4,0E0,0E0,0E0,1.37512E5,1.04286E5,1.22828E5,9.605966E4,5.8010254E2,3.7818125E3,2.1092E4,1.156E4,5.884E3,7.424E3,0E0,0E0,0E0,0E0,2.20635E4,1.863E4,1.5948E4,1.2646E4,2.0129E4,1.81695E4,9.6380625E3,1.5232893E4,4.973047E1,0E0,4.8582812E2,4.1648438E2,1.64125E3,2.484E3,1.53E2,3E2,0E0,0E0,0E0,0E0,0E0,0E0,0E0,0E0,0E0,0E0,0E0,0E0,0E0,0E0,0E0,0E0,0E0,0E0,0E0,0E0,0E0,0E0,0E0,0E0,0E0,0E0,0E0,0E0,0E0,0E0,0E0,0E0,0E0,0E0],"parents":[2147483647,0,0,1,1,2,2,3,3,4,4,5,5,6,6,7,7,8,8,9,9,10,10,11,11,12,12,13,13,14,14,15,15,19,19,20,20,21,21,22,22,23,23,24,24,25,25,26,26,27,27,28,28,33,33,34,34,35,35,36,36,37,37,38,38,39,39,40,40,41,41,43,43,44,44,45,45,46,46,47,47,48,48],"right_children":[2,4,6,8,10,12,14,16,18,20,22,24,26,28,30,32,-1,-1,-1,34,36,38,40,42,44,46,48,50,52,-1,-1,-1,-1,54,56,58,60,62,64,66,68,70,-1,72,74,76,78,80,82,-1,-1,-1,-1,-1,-1,-1,-1,-1,-1,-1,-1,-1,-1,-1,-1,-1,-1,-1,-1,-1,-1,-1,-1,-1,-1,-1,-1,-1,-1,-1,-1,-1,-1],"split_conditions":[6.642E-3,4.7434783E-3,1.7613763E-1,2.5282E0,5.510238E-3,7.878667E-3,9.404706E-3,9.509E-1,2.849632E1,5.3109946E-3,5.8051907E-3,1E0,8.537861E-3,9.018071E-3,9.887632E-3,1.11E0,4.4854E0,2.8272407E0,3.3187408E0,5.1273094E-3,5.422785E-3,5.624244E-3,6.0774195E-3,9.509E-1,2.8498125E1,1.6533953E-1,8.677976E-3,8.916667E-3,9.154452E-3,-2.4933898E0,-2.859093E0,6.376026E0,4.5805926E0,4.959048E-3,5.225054E-3,5.3740474E-3,5.469829E-3,5.56728E-3,5.7063387E-3,5.9211426E-3,6.306667E-3,1.61E0,-3.5247773E-1,1.40037E1,2.8499653E1,8.148824E-3,8.436167E-3,8.6168945E-3,8.7397285E-3,-2.087676E0,-2.150933E0,-2.216276E0,-2.3071916E0,2.3489754E0,1.9801549E0,1.7522221E0,1.5872802E0,1.4642133E0,1.3724746E0,1.2970277E0,1.2263788E0,1.1529073E0,1.0651292E0,9.686248E-1,8.4055394E-1,6.898414E-1,5.1169366E-1,2.7526677E-1,-7.1839325E-2,-5.1864064E-1,-7.1839213E-1,-1.0945957E0,-1.2833157E0,-8.761781E-1,-3.6097765E-1,-1.5129812E0,-1.6565939E0,-1.7617568E0,-1.8505297E0,-1.9116043E0,-1.9562092E0,-1.994881E0,-2.0337207E0],"split_indices":[1,1,8,3,1,1,1,3,0,1,1,2,1,1,1,4,0,0,0,1,1,1,1,3,0,8,1,1,1,0,0,0,0,1,1,1,1,1,1,1,1,4,0,3,0,1,1,1,1,0,0,0,0,0,0,0,0,0,0,0,0,0,0,0,0,0,0,0,0,0,0,0,0,0,0,0,0,0,0,0,0,0,0],"split_type":[0,0,0,0,0,0,0,0,0,0,0,0,0,0,0,0,0,0,0,0,0,0,0,0,0,0,0,0,0,0,0,0,0,0,0,0,0,0,0,0,0,0,0,0,0,0,0,0,0,0,0,0,0,0,0,0,0,0,0,0,0,0,0,0,0,0,0,0,0,0,0,0,0,0,0,0,0,0,0,0,0,0,0],"sum_hessian":[1.66139E5,1.03852E5,6.2287E4,6.62E2,1.0319E5,2.8471E4,3.3816E4,3.11E2,3.51E2,5.7155E4,4.6035E4,6.61E2,2.781E4,3.185E4,1.966E3,1.68E2,1.43E2,5.9E1,2.92E2,1.0423E4,4.6732E4,4.1552E4,4.483E3,1.57E2,5.04E2,6.462E3,2.1348E4,1.956E4,1.229E4,1.298E3,6.68E2,1.18E2,5E1,1.962E3,8.461E3,2.0098E4,2.6634E4,2.7315E4,1.4237E4,3.22E3,1.263E3,8E1,7.7E1,3.21E2,1.83E2,1.284E3,5.178E3,8.406E3,1.2942E4,1.1103E4,8.457E3,7.764E3,4.526E3,6.59E2,1.303E3,2.625E3,5.836E3,9.067E3,1.1031E4,1.3621E4,1.3013E4,1.5582E4,1.1733E4,1.0357E4,3.88E3,1.941E3,1.279E3,6.42E2,6.21E2,6.8E1,1.2E1,2.13E2,1.08E2,1.77E2,6E0,6.52E2,6.32E2,1.924E3,3.254E3,3.836E3,4.57E3,5.83E3,7.112E3],"tree_param":{"num_deleted":"0","num_feature":"9","num_nodes":"83","size_leaf_vector":"1"}},{"base_weights":[-1.9505802E-3,2.3539904E1,-3.9233467E1,7.965671E1,2.317762E1,-3.620339E1,-4.1583935E1,1.1215306E2,6.811496E1,2.7117416E1,1.9489641E1,-1.7081818E1,-3.666793E1,-4.1013306E1,-4.8567764E1,6.1585646E0,8.990202E1,6.1725307E1,7.882288E1,3.43088E1,2.5910898E1,2.0604553E1,1.0315822E1,-2.1866083E1,-1.2546171E1,-3.3195244E1,-3.7502953E1,-3.9986942E1,-4.2438683E1,-4.6640266E1,-2.7154293E0,4.6626186E0,2.5360212E0,2.7051902E0,3.202839E0,3.3350034E0,8.245881E1,4.200734E1,3.2579723E1,2.7931257E1,2.477039E1,2.2004646E1,1.8694576E1,1.2716561E1,2.007933E0,-1.1605325E0,-9.808936E-1,-1.0619928E1,-8.168394E-1,-3.015377E1,-3.4200214E1,-3.642351E1,-3.8117535E1,-1.9698976E0,-2.0266728E0,-2.0907109E0,-2.1717322E0,-2.2789814E0,-2.4284647E0,4.7213874E0,3.7605255E0,2.2381854E0,1.9563316E0,1.7379621E0,1.5748178E0,1.455484E0,1.3609728E0,1.2791514E0,1.2050003E0,1.1367654E0,1.0635867E0,9.7905475E-1,8.7402534E-1,7.1765584E-1,5.23549E-1,2.6620683E-1,-6.970117E-2,-7.767745E-1,-4.736294E-1,-1.4405057E0,-1.5750287E0,-1.6569098E0,-1.7358159E0,-1.7920628E0,-1.8415409E0,-1.882349E0,-1.9233774E0],"categories":[],"categories_nodes":[],"categories_segments":[],"categories_sizes":[],"default_left":[0,0,0,0,0,0,0,0,0,0,0,0,0,0,0,0,0,0,0,0,0,0,0,0,0,0,0,0,0,0,0,0,0,0,0,0,0,0,0,0,0,0,0,0,0,0,0,0,0,0,0,0,0,0,0,0,0,0,0,0,0,0,0,0,0,0,0,0,0,0,0,0,0,0,0,0,0,0,0,0,0,0,0,0,0,0,0],"id":5,"left_children":[1,3,5,7,9,11,13,15,17,19,21,23,25,27,29,-1,31,33,35,37,39,41,43,45,47,49,51,53,55,57,-1,-1,-1,-1,-1,-1,59,61,63,65,67,69,71,73,75,-1,-1,77,-1,79,81,83,85,-1,-1,-1,-1,-1,-1,-1,-1,-1,-1,-1,-1,-1,-1,-1,-1,-1,-1,-1,-1,-1,-1,-1,-1,-1,-1,-1,-1,-1,-1,-1,-1,-1,-1],"loss_changes":[1.5353178E8,2.110284E6,4.42496E5,2.421355E5,1.499344E6,2.41356E5,1.37888E5,3.1319E4,2.892025E4,4.32124E5,5.45152E5,1.3783656E4,7.5868E4,4.578E4,2.6736E4,0E0,3.2634062E3,2.102E3,2.463E3,9.4027E4,9.779E4,1.2672E5,1.15255625E5,4.895625E2,2.2698594E3,1.47465E4,1.2822E4,4.474E3,6.616E3,1.844E3,0E0,0E0,0E0,0E0,0E0,0E0,4.592875E3,8.64975E3,1.27275E4,1.2131E4,1.4268E4,1.4199E4,2.1305E4,1.63260625E4,1.4640026E4,0E0,0E0,1.1192988E3,0E0,1.422625E3,9.66E2,5.22E2,7.9E2,0E0,0E0,0E0,0E0,0E0,0E0,0E0,0E0,0E0,0E0,0E0,0E0,0E0,0E0,0E0,0E0,0E0,0E0,0E0,0E0,0E0,0E0,0E0,0E0,0E0,0E0,0E0,0E0,0E0,0E0,0E0,0E0,0E0,0E0],"parents":[2147483647,0,0,1,1,2,2,3,3,4,4,5,5,6,6,7,7,8,8,9,9,10,10,11,11,12,12,13,13,14,14,16,16,17,17,18,18,19,19,20,20,21,21,22,22,23,23,24,24,25,25,26,26,27,27,28,28,29,29,36,36,37,37,38,38,39,39,40,40,41,41,42,42,43,43,44,44,47,47,49,49,50,50,51,51,52,52],"right_children":[2,4,6,8,10,12,14,16,18,20,22,24,26,28,30,-1,32,34,36,38,40,42,44,46,48,50,52,54,56,58,-1,-1,-1,-1,-1,-1,60,62,64,66,68,70,72,74,76,-1,-1,78,-1,80,82,84,86,-1,-1,-1,-1,-1,-1,-1,-1,-1,-1,-1,-1,-1,-1,-1,-1,-1,-1,-1,-1,-1,-1,-1,-1,-1,-1,-1,-1,-1,-1,-1,-1,-1,-1],"split_conditions":[6.642E-3,4.7434783E-3,8.79415E-3,9.509E-1,5.4881903E-3,7.878667E-3,9.320238E-3,9.3E-1,2.8499027E1,5.272011E-3,5.757619E-3,2.8498125E1,1.6999665E-1,1.7985667E-1,9.887632E-3,6.1585646E0,2.02E0,2.8496624E1,6E0,5.073032E-3,5.390524E-3,5.587357E-3,6.0774195E-3,2.8496624E1,1.95E0,8.266391E-3,8.653762E-3,8.88106E-3,9.1224285E-3,9.5775E-3,-2.7154293E0,4.6626186E0,2.5360212E0,2.7051902E0,3.202839E0,3.3350034E0,1.6215E0,4.959048E-3,5.18636E-3,5.3336816E-3,5.438619E-3,5.5317855E-3,5.651059E-3,5.872E-3,6.306667E-3,-1.1605325E0,-9.808936E-1,4.1E-1,-8.168394E-1,8.148824E-3,8.40037E-3,8.584585E-3,8.72138E-3,-1.9698976E0,-2.0266728E0,-2.0907109E0,-2.1717322E0,-2.2789814E0,-2.4284647E0,4.7213874E0,3.7605255E0,2.2381854E0,1.9563316E0,1.7379621E0,1.5748178E0,1.455484E0,1.3609728E0,1.2791514E0,1.2050003E0,1.1367654E0,1.0635867E0,9.7905475E-1,8.7402534E-1,7.1765584E-1,5.23549E-1,2.6620683E-1,-6.970117E-2,-7.767745E-1,-4.736294E-1,-1.4405057E0,-1.5750287E0,-1.6569098E0,-1.7358159E0,-1.7920628E0,-1.8415409E0,-1.882349E0,-1.9233774E0],"split_indices":[1,1,1,3,1,1,1,4,0,1,1,0,8,8,1,0,4,0,5,1,1,1,1,0,4,1,1,1,1,1,0,0,0,0,0,0,3,1,1,1,1,1,1,1,1,0,0,4,0,1,1,1,1,0,0,0,0,0,0,0,0,0,0,0,0,0,0,0,0,0,0,0,0,0,0,0,0,0,0,0,0,0,0,0,0,0,0],"split_type":[0,0,0,0,0,0,0,0,0,0,0,0,0,0,0,0,0,0,0,0,0,0,0,0,0,0,0,0,0,0,0,0,0,0,0,0,0,0,0,0,0,0,0,0,0,0,0,0,0,0,0,0,0,0,0,0,0,0,0,0,0,0,0,0,0,0,0,0,0,0,0,0,0,0,0,0,0,0,0,0,0,0,0,0,0,0,0],"sum_hessian":[1.66233E5,1.03891E5,6.2342E4,6.65E2,1.03226E5,2.7241E4,3.5101E4,1.72E2,4.93E2,4.9906E4,5.332E4,6.47E2,2.6594E4,3.2456E4,2.645E3,1.12E2,6E1,3.13E2,1.8E2,7.166E3,4.274E4,4.7541E4,5.779E3,3.13E2,3.34E2,5.163E3,2.1431E4,1.8886E4,1.357E4,1.987E3,6.58E2,5.4E1,6E0,7.9E1,2.34E2,4.6E1,1.34E2,1.31E3,5.856E3,1.5413E4,2.7327E4,2.7426E4,2.0115E4,4.483E3,1.296E3,1.9E2,1.23E2,2.24E2,1.1E2,1.29E3,3.873E3,7.797E3,1.3634E4,9.125E3,9.761E3,8.367E3,5.203E3,1.298E3,6.89E2,4.6E1,8.8E1,6.62E2,6.48E2,1.934E3,3.922E3,5.789E3,9.624E3,1.2336E4,1.4991E4,1.3719E4,1.3707E4,1.1617E4,8.498E3,2.59E3,1.893E3,6.56E2,6.4E2,4E1,1.84E2,6.57E2,6.33E2,1.288E3,2.585E3,3.246E3,4.551E3,5.862E3,7.772E3],"tree_param":{"num_deleted":"0","num_feature":"9","num_nodes":"87","size_leaf_vector":"1"}},{"base_weights":[2.5245886E-2,2.2365396E1,-3.725867E1,7.437501E1,2.2019173E1,-3.4552982E1,-3.9645756E1,5.216371E0,6.409058E1,2.5196653E1,1.7870384E1,-1.6509312E1,-3.498322E1,-3.9171043E1,-4.724662E1,3.7946568E0,5.873531E1,3.0929207E1,2.385378E1,1.883838E1,7.72191E0,-8.450322E0,-1.9231619E1,-3.1991713E1,-3.586473E1,-3.8292797E1,-4.075943E1,-2.251645E0,-2.5836356E0,2.527095E0,3.015671E0,3.8048367E1,2.94221E1,2.541819E1,2.2700666E1,1.9978268E1,1.6546812E1,1.0571984E1,1.9024665E0,-9.787156E0,-2.9990768E-1,-2.1687878E1,-1.6453213E1,-2.9434866E1,-3.3071186E1,-3.50423E1,-1.8253225E0,-1.8875468E0,-1.9475234E0,-2.0128925E0,-2.0976214E0,2.1238537E0,1.7879673E0,1.5665371E0,1.418243E0,1.3147311E0,1.23468E0,1.1673849E0,1.1026717E0,1.0337251E0,9.529964E-1,8.6362326E-1,7.360962E-1,5.702395E-1,3.9947456E-1,2.495878E-1,-6.915534E-2,-4.3609962E-1,-5.8805954E-1,-1.179358E0,-1.030258E0,-8.324589E-1,-4.7485492E-1,-1.3668523E0,-1.5223656E0,-1.621501E0,-1.6769031E0,-1.7286421E0,-1.772703E0],"categories":[],"categories_nodes":[],"categories_segments":[],"categories_sizes":[],"default_left":[0,0,0,0,0,0,0,0,0,0,0,0,0,0,0,0,0,0,0,0,0,0,0,0,0,0,0,0,0,0,0,0,0,0,0,0,0,0,0,0,0,0,0,0,0,0,0,0,0,0,0,0,0,0,0,0,0,0,0,0,0,0,0,0,0,0,0,0,0,0,0,0,0,0,0,0,0,0,0],"id":6,"left_children":[1,3,5,7,9,11,13,-1,15,17,19,21,23,25,27,-1,29,31,33,35,37,39,41,43,45,47,49,-1,-1,-1,-1,51,53,55,57,59,61,63,65,67,-1,69,71,73,75,77,-1,-1,-1,-1,-1,-1,-1,-1,-1,-1,-1,-1,-1,-1,-1,-1,-1,-1,-1,-1,-1,-1,-1,-1,-1,-1,-1,-1,-1,-1,-1,-1,-1],"loss_changes":[1.3846517E8,1.870208E6,4.00912E5,2.049225E5,1.360868E6,2.2612E5,1.17516E5,0E0,2.801675E4,4.49408E5,4.39866E5,1.4797172E4,7.4056E4,4.1876E4,1.66715E4,0E0,1.569625E3,1.17916E5,8.4892E4,1.06475E5,6.469658E4,5.1011328E2,3.1130312E3,1.69635E4,1.0336E4,5.676E3,4.928E3,0E0,0E0,0E0,0E0,1.8089E4,1.7591E4,1.2108E4,1.0907E4,1.7059E4,1.773725E4,5.539625E3,1.3039978E4,1.287666E2,0E0,5.8617188E1,1.7050781E2,3.28025E3,2.715E2,6.38E2,0E0,0E0,0E0,0E0,0E0,0E0,0E0,0E0,0E0,0E0,0E0,0E0,0E0,0E0,0E0,0E0,0E0,0E0,0E0,0E0,0E0,0E0,0E0,0E0,0E0,0E0,0E0,0E0,0E0,0E0,0E0,0E0,0E0],"parents":[2147483647,0,0,1,1,2,2,3,3,4,4,5,5,6,6,8,8,9,9,10,10,11,11,12,12,13,13,14,14,16,16,17,17,18,18,19,19,20,20,21,21,22,22,23,23,24,24,25,25,26,26,31,31,32,32,33,33,34,34,35,35,36,36,37,37,38,38,39,39,41,41,42,42,43,43,44,44,45,45],"right_children":[2,4,6,8,10,12,14,-1,16,18,20,22,24,26,28,-1,30,32,34,36,38,40,42,44,46,48,50,-1,-1,-1,-1,52,54,56,58,60,62,64,66,68,-1,70,72,74,76,78,-1,-1,-1,-1,-1,-1,-1,-1,-1,-1,-1,-1,-1,-1,-1,-1,-1,-1,-1,-1,-1,-1,-1,-1,-1,-1,-1,-1,-1,-1,-1,-1,-1],"split_conditions":[6.642E-3,4.7434783E-3,8.812762E-3,9.509E-1,5.5144522E-3,7.878667E-3,9.404706E-3,5.216371E0,2.5282E0,5.3172754E-3,5.833854E-3,1E0,8.537861E-3,9.036872E-3,9.887632E-3,3.7946568E0,2.849632E1,5.1273094E-3,5.4250476E-3,5.6313695E-3,6.0774195E-3,3E0,2.849753E1,8.343125E-3,8.693024E-3,8.924072E-3,9.193359E-3,-2.251645E0,-2.5836356E0,2.527095E0,3.015671E0,4.959048E-3,5.2390713E-3,5.377333E-3,5.4719048E-3,5.5725E-3,5.716006E-3,5.9836362E-3,6.306667E-3,1E0,-2.9990768E-1,2.8490307E1,2.8499653E1,8.148824E-3,8.461048E-3,8.626601E-3,-1.8253225E0,-1.8875468E0,-1.9475234E0,-2.0128925E0,-2.0976214E0,2.1238537E0,1.7879673E0,1.5665371E0,1.418243E0,1.3147311E0,1.23468E0,1.1673849E0,1.1026717E0,1.0337251E0,9.529964E-1,8.6362326E-1,7.360962E-1,5.702395E-1,3.9947456E-1,2.495878E-1,-6.915534E-2,-4.3609962E-1,-5.8805954E-1,-1.179358E0,-1.030258E0,-8.324589E-1,-4.7485492E-1,-1.3668523E0,-1.5223656E0,-1.621501E0,-1.6769031E0,-1.7286421E0,-1.772703E0],"split_indices":[1,1,1,3,1,1,1,0,3,1,1,2,1,1,1,0,0,1,1,1,1,5,0,1,1,1,1,0,0,0,0,1,1,1,1,1,1,1,1,6,0,0,0,1,1,1,0,0,0,0,0,0,0,0,0,0,0,0,0,0,0,0,0,0,0,0,0,0,0,0,0,0,0,0,0,0,0,0,0],"split_type":[0,0,0,0,0,0,0,0,0,0,0,0,0,0,0,0,0,0,0,0,0,0,0,0,0,0,0,0,0,0,0,0,0,0,0,0,0,0,0,0,0,0,0,0,0,0,0,0,0,0,0,0,0,0,0,0,0,0,0,0,0,0,0,0,0,0,0,0,0,0,0,0,0,0,0,0,0,0,0],"sum_hessian":[1.66237E5,1.03951E5,6.2286E4,6.86E2,1.03265E5,2.9202E4,3.3084E4,1.73E2,5.13E2,5.8475E4,4.479E4,6.81E2,2.8521E4,3.1145E4,1.939E3,1.56E2,3.57E2,1.1094E4,4.7381E4,4.0889E4,3.901E3,1.73E2,5.08E2,6.5E3,2.2021E4,2.0072E4,1.1073E4,1.3E3,6.39E2,6.3E1,2.94E2,1.934E3,9.16E3,2.0096E4,2.7285E4,2.7301E4,1.3588E4,2.618E3,1.283E3,1.1E2,6.3E1,2.66E2,2.42E2,1.938E3,4.562E3,9.676E3,1.2345E4,1.1037E4,9.035E3,7.82E3,3.253E3,6.53E2,1.281E3,3.255E3,5.905E3,9.079E3,1.1017E4,1.3627E4,1.3658E4,1.5516E4,1.1785E4,9.716E3,3.872E3,1.977E3,6.41E2,6.61E2,6.22E2,7.5E1,3.5E1,8.9E1,1.77E2,2.34E2,8E0,6.4E2,1.298E3,1.952E3,2.61E3,4.561E3,5.115E3],"tree_param":{"num_deleted":"0","num_feature":"9","num_nodes":"79","size_leaf_vector":"1"}},{"base_weights":[4.3061197E-2,2.1274084E1,-3.540887E1,7.288119E1,2.0924334E1,-3.2618523E1,-3.7479725E1,9.398162E1,5.7903015E1,2.4580189E1,1.7655607E1,-1.5712975E1,-3.3040142E1,-3.6977997E1,-4.385386E1,1.07413925E2,3.8931222E0,6.0028145E1,2.4697697E0,3.1361534E1,2.3529194E1,1.8656507E1,9.304407E0,-1.9981665E1,-1.1538656E1,-2.9958315E1,-3.3807106E1,-3.6015736E1,-3.824703E1,-4.2082428E1,-2.4578848E0,5.7707787E0,4.727878E0,2.8809137E0,6.586247E1,3.7951973E1,2.9679153E1,2.5358498E1,2.2456957E1,1.987638E1,1.6821693E1,1.1429649E1,1.7812058E0,-1.1098901E0,-1.8821667E1,-9.551445E0,-7.6862097E-1,-2.722349E1,-3.087158E1,-3.2873974E1,-3.4366673E1,-1.7743429E0,-1.8252538E0,-1.8821154E0,-1.9558676E0,-2.0571516E0,-2.1938562E0,2.5767698E0,3.5068834E0,2.0184944E0,1.7712309E0,1.5994389E0,1.4447079E0,1.3234954E0,1.2341784E0,1.1597251E0,1.0937665E0,1.0270557E0,9.561812E-1,8.788945E-1,7.8449893E-1,6.466904E-1,4.719328E-1,2.3930137E-1,-6.437389E-2,-9.4875014E-1,-5.137875E-1,-7.011741E-1,-4.285043E-1,-1.298556E0,-1.4211336E0,-1.4958438E0,-1.5666269E0,-1.612138E0,-1.6588652E0,-1.7004035E0,-1.7360445E0],"categories":[],"categories_nodes":[],"categories_segments":[],"categories_sizes":[],"default_left":[0,0,0,0,0,0,0,0,0,0,0,0,0,0,0,0,0,0,0,0,0,0,0,0,0,0,0,0,0,0,0,0,0,0,0,0,0,0,0,0,0,0,0,0,0,0,0,0,0,0,0,0,0,0,0,0,0,0,0,0,0,0,0,0,0,0,0,0,0,0,0,0,0,0,0,0,0,0,0,0,0,0,0,0,0,0,0],"id":7,"left_children":[1,3,5,7,9,11,13,15,17,19,21,23,25,27,29,31,-1,33,-1,35,37,39,41,43,45,47,49,51,53,55,-1,-1,-1,-1,57,59,61,63,65,67,69,71,73,-1,75,77,-1,79,81,83,85,-1,-1,-1,-1,-1,-1,-1,-1,-1,-1,-1,-1,-1,-1,-1,-1,-1,-1,-1,-1,-1,-1,-1,-1,-1,-1,-1,-1,-1,-1,-1,-1,-1,-1,-1,-1],"loss_changes":[1.2521521E8,1.876488E6,3.58832E5,2.1577525E5,1.234584E6,1.88732E5,1.1274E5,5.41915E4,4.47275E3,3.4694E5,4.55936E5,1.13129375E4,6.0212E4,3.9104E4,2.2388E4,5.010875E3,0E0,7.62375E2,0E0,7.14135E4,8.228E4,1.08724E5,9.338384E4,3.9815625E2,2.3647812E3,1.20685E4,9.69E3,3.582E3,6.036E3,1.48875E3,0E0,0E0,0E0,0E0,1.7633438E3,6.6715E3,8.528E3,1.1045E4,1.0916E4,1.4246E4,1.6379E4,1.3516875E4,1.1882962E4,0E0,8.5140625E1,8.430664E2,0E0,1.2133125E3,7.595E2,4.18E2,4.56E2,0E0,0E0,0E0,0E0,0E0,0E0,0E0,0E0,0E0,0E0,0E0,0E0,0E0,0E0,0E0,0E0,0E0,0E0,0E0,0E0,0E0,0E0,0E0,0E0,0E0,0E0,0E0,0E0,0E0,0E0,0E0,0E0,0E0,0E0,0E0,0E0],"parents":[2147483647,0,0,1,1,2,2,3,3,4,4,5,5,6,6,7,7,8,8,9,9,10,10,11,11,12,12,13,13,14,14,15,15,17,17,19,19,20,20,21,21,22,22,23,23,24,24,25,25,26,26,27,27,28,28,29,29,34,34,35,35,36,36,37,37,38,38,39,39,40,40,41,41,42,42,44,44,45,45,47,47,48,48,49,49,50,50],"right_children":[2,4,6,8,10,12,14,16,18,20,22,24,26,28,30,32,-1,34,-1,36,38,40,42,44,46,48,50,52,54,56,-1,-1,-1,-1,58,60,62,64,66,68,70,72,74,-1,76,78,-1,80,82,84,86,-1,-1,-1,-1,-1,-1,-1,-1,-1,-1,-1,-1,-1,-1,-1,-1,-1,-1,-1,-1,-1,-1,-1,-1,-1,-1,-1,-1,-1,-1,-1,-1,-1,-1,-1,-1],"split_conditions":[1.3284E-1,9.486956E-2,1.7576492E-1,1.6215E0,1.0968062E-1,1.5757333E-1,1.8640476E-1,6.8E-1,9.3644E0,1.0524238E-1,1.1515238E-1,9.999344E-1,1.6999665E-1,1.7969905E-1,1.9775262E-1,3E0,3.8931222E0,2.8499027E1,2.4697697E0,1.01460636E-1,1.07750855E-1,1.1180143E-1,1.21548384E-1,2.8491802E1,1.95E0,1.6533953E-1,1.7306904E-1,1.7749298E-1,1.8217614E-1,1.9155E-1,-2.4578848E0,5.7707787E0,4.727878E0,2.8809137E0,9E0,9.918095E-2,1.0318809E-1,1.06578246E-1,1.0868641E-1,1.1068143E-1,1.131125E-1,1.1744E-1,1.2613334E-1,-1.1098901E0,6.2E1,4.1E-1,-7.6862097E-1,1.6297647E-1,1.680074E-1,1.7141858E-1,1.7455047E-1,-1.7743429E0,-1.8252538E0,-1.8821154E0,-1.9558676E0,-2.0571516E0,-2.1938562E0,2.5767698E0,3.5068834E0,2.0184944E0,1.7712309E0,1.5994389E0,1.4447079E0,1.3234954E0,1.2341784E0,1.1597251E0,1.0937665E0,1.0270557E0,9.561812E-1,8.788945E-1,7.8449893E-1,6.466904E-1,4.719328E-1,2.3930137E-1,-6.437389E-2,-9.4875014E-1,-5.137875E-1,-7.011741E-1,-4.285043E-1,-1.298556E0,-1.4211336E0,-1.4958438E0,-1.5666269E0,-1.612138E0,-1.6588652E0,-1.7004035E0,-1.7360445E0],"split_indices":[8,8,8,3,8,8,8,4,3,8,8,7,8,8,8,5,0,0,0,8,8,8,8,0,4,8,8,8,8,8,0,0,0,0,5,8,8,8,8,8,8,8,8,0,5,4,0,8,8,8,8,0,0,0,0,0,0,0,0,0,0,0,0,0,0,0,0,0,0,0,0,0,0,0,0,0,0,0,0,0,0,0,0,0,0,0,0],"split_type":[0,0,0,0,0,0,0,0,0,0,0,0,0,0,0,0,0,0,0,0,0,0,0,0,0,0,0,0,0,0,0,0,0,0,0,0,0,0,0,0,0,0,0,0,0,0,0,0,0,0,0,0,0,0,0,0,0,0,0,0,0,0,0,0,0,0,0,0,0,0,0,0,0,0,0,0,0,0,0,0,0,0,0,0,0,0,0],"sum_hessian":[1.66357E5,1.04047E5,6.231E4,6.99E2,1.03348E5,2.6551E4,3.5759E4,2.88E2,4.11E2,4.8782E4,5.4566E4,6.47E2,2.5904E4,3.3156E4,2.603E3,1.54E2,1.34E2,3.24E2,8.7E1,6.542E3,4.224E4,4.8725E4,5.841E3,3.18E2,3.29E2,5.17E3,2.0734E4,1.8874E4,1.4282E4,1.958E3,6.45E2,9E1,6.4E1,2.37E2,8.7E1,1.326E3,5.216E3,1.5601E4,2.6639E4,2.9261E4,1.9464E4,4.554E3,1.287E3,1.03E2,2.15E2,2.19E2,1.1E2,1.302E3,3.868E3,7.795E3,1.2939E4,9.106E3,9.768E3,8.453E3,5.829E3,1.301E3,6.57E2,2.3E1,6.4E1,6.7E2,6.56E2,1.313E3,3.903E3,5.88E3,9.721E3,1.1728E4,1.4911E4,1.5525E4,1.3736E4,1.1659E4,7.805E3,2.591E3,1.963E3,6.5E2,6.37E2,2.1E2,5E0,3.7E1,1.82E2,6.48E2,6.54E2,1.281E3,2.587E3,2.565E3,5.23E3,6.478E3,6.461E3],"tree_param":{"num_deleted":"0","num_feature":"9","num_nodes":"87","size_leaf_vector":"1"}},{"base_weights":[-6.199577E-2,2.0182919E1,-3.361901E1,6.7732056E1,1.9864399E1,-3.0843893E1,-3.5517567E1,8.7464E1,5.4172337E1,2.2703001E1,1.6067776E1,-1.470877E1,-3.1291855E1,-3.4941284E1,-4.0407143E1,9.990757E1,7.284876E1,6.680228E1,5.1907635E1,2.833778E1,2.1585304E1,1.6955486E1,6.9386854E0,-7.3669896E0,-1.719872E1,-2.8212427E1,-3.1982773E1,-3.404515E1,-3.6033386E1,-3.9217686E1,-2.3276603E0,5.2374125E0,8.369007E1,7.833558E1,6.473057E1,2.357309E0,7.4279434E1,2.2594974E0,2.6647334E0,3.602603E1,2.7160353E1,2.3221582E1,2.0575993E1,1.7962332E1,1.4854561E1,9.534746E0,1.755101E0,-8.559637E0,-2.6487324E-1,-1.4227765E1,-1.922701E1,-2.5838413E1,-2.9140491E1,-3.1016375E1,-3.251027E1,-1.6774285E0,-1.7234957E0,-1.775245E0,-1.8355538E0,-1.9279416E0,-2.086516E0,3.1615102E0,4.7584767E0,4.117216E0,2.7633183E0,2.7047336E0,3.6005514E0,3.243799E0,4.846628E0,1.9147444E0,1.6839908E0,1.4714617E0,1.3078555E0,1.2058296E0,1.1296223E0,1.0654267E0,9.9934024E-1,9.294149E-1,8.561818E-1,7.72629E-1,6.523513E-1,5.163499E-1,3.5580167E-1,2.2792666E-1,-5.891772E-2,-4.021341E-1,-5.64542E-1,-7.2867596E-1,-2.8880998E-1,-9.1022617E-1,-1.0569366E0,-1.2351083E0,-1.3478552E0,-1.3964306E0,-1.4717273E0,-1.5273093E0,-1.5704353E0,-1.6057713E0,-1.6415867E0],"categories":[],"categories_nodes":[],"categories_segments":[],"categories_sizes":[],"default_left":[0,0,0,0,0,0,0,0,0,0,0,0,0,0,0,0,0,0,0,0,0,0,0,0,0,0,0,0,0,0,0,0,0,0,0,0,0,0,0,0,0,0,0,0,0,0,0,0,0,0,0,0,0,0,0,0,0,0,0,0,0,0,0,0,0,0,0,0,0,0,0,0,0,0,0,0,0,0,0,0,0,0,0,0,0,0,0,0,0,0,0,0,0,0,0,0,0,0,0],"id":8,"left_children":[1,3,5,7,9,11,13,15,17,19,21,23,25,27,29,31,33,35,37,39,41,43,45,47,49,51,53,55,57,59,-1,-1,61,63,65,-1,67,-1,-1,69,71,73,75,77,79,81,83,85,-1,87,89,91,93,95,97,-1,-1,-1,-1,-1,-1,-1,-1,-1,-1,-1,-1,-1,-1,-1,-1,-1,-1,-1,-1,-1,-1,-1,-1,-1,-1,-1,-1,-1,-1,-1,-1,-1,-1,-1,-1,-1,-1,-1,-1,-1,-1,-1,-1],"loss_changes":[1.1285035E8,1.567804E6,3.28224E5,1.795965E5,1.108796E6,1.83116E5,1.03144E5,4.3445E4,8.276375E3,3.70254E5,3.56722E5,1.24479375E4,5.167E4,3.1264E4,2.67205E4,2.83325E3,7.94625E2,5.1571875E3,8.709375E2,8.7221E4,8.0678E4,8.4617E4,5.2517875E4,3.876748E2,2.8144219E3,9.23775E3,9.27E3,2.686E3,4.042E3,3.811E3,0E0,0E0,3.1264375E3,2.2788438E3,6.6059375E2,0E0,2.4289688E3,0E0,0E0,5.575375E3,1.84675E4,1.0004E4,1.2693E4,1.3918E4,1.385525E4,4.908875E3,1.0729472E4,6.256836E1,0E0,5.3327734E2,2.015625E2,9.609375E2,3.32E2,3.525E2,5.93E2,0E0,0E0,0E0,0E0,0E0,0E0,0E0,0E0,0E0,0E0,0E0,0E0,0E0,0E0,0E0,0E0,0E0,0E0,0E0,0E0,0E0,0E0,0E0,0E0,0E0,0E0,0E0,0E0,0E0,0E0,0E0,0E0,0E0,0E0,0E0,0E0,0E0,0E0,0E0,0E0,0E0,0E0,0E0,0E0],"parents":[2147483647,0,0,1,1,2,2,3,3,4,4,5,5,6,6,7,7,8,8,9,9,10,10,11,11,12,12,13,13,14,14,15,15,16,16,17,17,18,18,19,19,20,20,21,21,22,22,23,23,24,24,25,25,26,26,27,27,28,28,29,29,32,32,33,33,34,34,36,36,39,39,40,40,41,41,42,42,43,43,44,44,45,45,46,46,47,47,49,49,50,50,51,51,52,52,53,53,54,54],"right_children":[2,4,6,8,10,12,14,16,18,20,22,24,26,28,30,32,34,36,38,40,42,44,46,48,50,52,54,56,58,60,-1,-1,62,64,66,-1,68,-1,-1,70,72,74,76,78,80,82,84,86,-1,88,90,92,94,96,98,-1,-1,-1,-1,-1,-1,-1,-1,-1,-1,-1,-1,-1,-1,-1,-1,-1,-1,-1,-1,-1,-1,-1,-1,-1,-1,-1,-1,-1,-1,-1,-1,-1,-1,-1,-1,-1,-1,-1,-1,-1,-1,-1,-1],"split_conditions":[6.642E-3,4.7434783E-3,8.776024E-3,1.6215E0,5.516595E-3,7.878667E-3,9.247803E-3,5.2E-1,2.5282E0,5.3036385E-3,5.833854E-3,1E0,8.481499E-3,8.960375E-3,9.887632E-3,9.509E-1,9.509E-1,9E0,2.849632E1,5.073032E-3,5.415762E-3,5.6346427E-3,6.0774195E-3,3E0,4.0382E0,8.266391E-3,8.636096E-3,8.855406E-3,9.074112E-3,9.5775E-3,-2.3276603E0,5.2374125E0,6E0,1.52E0,6E0,2.357309E0,9.999766E-1,2.2594974E0,2.6647334E0,4.959048E-3,5.2070953E-3,5.3634048E-3,5.463214E-3,5.575571E-3,5.7268334E-3,5.9836362E-3,6.306667E-3,1.61E0,-2.6487324E-1,2.8499653E1,1.63454E1,8.148824E-3,8.343125E-3,8.57095E-3,8.707603E-3,-1.6774285E0,-1.7234957E0,-1.775245E0,-1.8355538E0,-1.9279416E0,-2.086516E0,3.1615102E0,4.7584767E0,4.117216E0,2.7633183E0,2.7047336E0,3.6005514E0,3.243799E0,4.846628E0,1.9147444E0,1.6839908E0,1.4714617E0,1.3078555E0,1.2058296E0,1.1296223E0,1.0654267E0,9.9934024E-1,9.294149E-1,8.561818E-1,7.72629E-1,6.523513E-1,5.163499E-1,3.5580167E-1,2.2792666E-1,-5.891772E-2,-4.021341E-1,-5.64542E-1,-7.2867596E-1,-2.8880998E-1,-9.1022617E-1,-1.0569366E0,-1.2351083E0,-1.3478552E0,-1.3964306E0,-1.4717273E0,-1.5273093E0,-1.5704353E0,-1.6057713E0,-1.6415867E0],"split_indices":[1,1,1,3,1,1,1,4,3,1,1,2,1,1,1,3,3,5,0,1,1,1,1,5,3,1,1,1,1,1,0,0,5,4,5,0,7,0,0,1,1,1,1,1,1,1,1,4,0,0,3,1,1,1,1,0,0,0,0,0,0,0,0,0,0,0,0,0,0,0,0,0,0,0,0,0,0,0,0,0,0,0,0,0,0,0,0,0,0,0,0,0,0,0,0,0,0,0,0],"split_type":[0,0,0,0,0,0,0,0,0,0,0,0,0,0,0,0,0,0,0,0,0,0,0,0,0,0,0,0,0,0,0,0,0,0,0,0,0,0,0,0,0,0,0,0,0,0,0,0,0,0,0,0,0,0,0,0,0,0,0,0,0,0,0,0,0,0,0,0,0,0,0,0,0,0,0,0,0,0,0,0,0,0,0,0,0,0,0,0,0,0,0,0,0,0,0,0,0,0,0],"sum_hessian":[1.66111E5,1.03606E5,6.2505E4,6.88E2,1.02918E5,2.5398E4,3.7107E4,2.78E2,4.1E2,5.8886E4,4.4032E4,6.87E2,2.4711E4,3.3202E4,3.905E3,1.47E2,1.31E2,5.8E1,3.52E2,9.743E3,4.9143E4,4.0129E4,3.903E3,1.75E2,5.12E2,4.536E3,2.0175E4,1.8255E4,1.4947E4,3.278E3,6.27E2,1.09E2,3.8E1,7.3E1,5.8E1,1.8E1,4E1,6.6E1,2.86E2,1.29E3,8.453E3,1.874E4,3.0403E4,2.7123E4,1.3006E4,2.6E3,1.303E3,1.09E2,6.6E1,2.11E2,3.01E2,1.283E3,3.253E3,7.145E3,1.303E4,8.453E3,9.802E3,8.428E3,6.519E3,2.61E3,6.68E2,1.6E1,2.2E1,6E1,1.3E1,2.7E1,3.1E1,3.1E1,9E0,6.48E2,6.42E2,2.583E3,5.87E3,7.72E3,1.102E4,1.3537E4,1.6866E4,1.5519E4,1.1604E4,9.767E3,3.239E3,1.956E3,6.44E2,6.66E2,6.37E2,9.5E1,1.4E1,2.02E2,9E0,2.03E2,9.8E1,6.48E2,6.35E2,6.54E2,2.599E3,3.286E3,3.859E3,5.893E3,7.137E3],"tree_param":{"num_deleted":"0","num_feature":"9","num_nodes":"99","size_leaf_vector":"1"}},{"base_weights":[-1.36376135E-2,1.9179234E1,-3.194753E1,6.458209E1,1.8874315E1,-2.9676977E1,-3.4032536E1,9.140599E1,5.544688E1,2.1898367E1,1.56575575E1,-1.8728582E1,-3.0182873E1,-3.361839E1,-4.052106E1,5.008528E0,6.700106E1,6.759943E1,5.063218E1,2.7379498E1,2.0866472E1,1.6556946E1,7.8929663E0,-1.4047061E1,-1.1701423E0,-2.811638E1,-3.0866655E1,-3.2900967E1,-3.5016453E1,-1.9338702E0,-2.2150965E0,7.163702E1,2.4322393E0,7.602764E1,3.1499727E0,2.1070564E0,2.5904262E0,3.4145508E1,2.6156769E1,2.2414555E1,1.9924046E1,1.7604464E1,1.4839282E1,9.978952E0,1.6513374E0,-1.8068287E1,-1.0432333E1,-2.6553078E1,-2.8697002E1,-3.0247501E1,-1.5690407E0,-1.6215953E0,-1.6733807E0,-1.7284603E0,-1.7992855E0,2.598052E0,3.8979561E0,2.4124258E0,4.0301776E0,1.8153385E0,1.5995698E0,1.3988041E0,1.2564849E0,1.1627264E0,1.0898658E0,1.026874E0,9.667594E-1,9.106078E-1,8.4512705E-1,7.734821E-1,6.8221605E-1,5.5136937E-1,3.8886142E-1,2.1576364E-1,-5.491349E-2,-8.444461E-1,-9.9838173E-1,-4.3809763E-1,-6.8915915E-1,-1.2809988E0,-1.3490709E0,-1.4073881E0,-1.4510726E0,-1.4945526E0,-1.5275552E0],"categories":[],"categories_nodes":[],"categories_segments":[],"categories_sizes":[],"default_left":[0,0,0,0,0,0,0,0,0,0,0,0,0,0,0,0,0,0,0,0,0,0,0,0,0,0,0,0,0,0,0,0,0,0,0,0,0,0,0,0,0,0,0,0,0,0,0,0,0,0,0,0,0,0,0,0,0,0,0,0,0,0,0,0,0,0,0,0,0,0,0,0,0,0,0,0,0,0,0,0,0,0,0,0,0],"id":9,"left_children":[1,3,5,7,9,11,13,15,17,19,21,23,25,27,29,-1,31,33,35,37,39,41,43,45,-1,47,49,51,53,-1,-1,55,-1,57,-1,-1,-1,59,61,63,65,67,69,71,73,75,77,79,81,83,-1,-1,-1,-1,-1,-1,-1,-1,-1,-1,-1,-1,-1,-1,-1,-1,-1,-1,-1,-1,-1,-1,-1,-1,-1,-1,-1,-1,-1,-1,-1,-1,-1,-1,-1],"loss_changes":[1.0170269E8,1.433644E6,2.9388E5,1.6424125E5,1.001152E6,1.64632E5,8.5872E4,3.049E4,2.6874125E4,2.9955E5,3.48276E5,2.8552594E4,3.941E4,2.946E4,1.1822E4,0E0,6.7303125E2,7.791875E2,1.5530625E3,6.86265E4,6.4708E4,8.0183E4,6.743869E4,9.431234E3,0E0,5.676E3,5.86E3,4.274E3,3.23E3,0E0,0E0,5.3875E2,0E0,1.9454062E3,0E0,0E0,0E0,4.80475E3,1.25995E4,8.246E3,9.63E3,1.1533E4,1.254925E4,8.875719E3,9.519945E3,3.5796094E2,1.8415977E3,7.7375E1,9.8E1,1.35E2,0E0,0E0,0E0,0E0,0E0,0E0,0E0,0E0,0E0,0E0,0E0,0E0,0E0,0E0,0E0,0E0,0E0,0E0,0E0,0E0,0E0,0E0,0E0,0E0,0E0,0E0,0E0,0E0,0E0,0E0,0E0,0E0,0E0,0E0,0E0],"parents":[2147483647,0,0,1,1,2,2,3,3,4,4,5,5,6,6,7,7,8,8,9,9,10,10,11,11,12,12,13,13,14,14,16,16,17,17,18,18,19,19,20,20,21,21,22,22,23,23,25,25,26,26,27,27,28,28,31,31,33,33,37,37,38,38,39,39,40,40,41,41,42,42,43,43,44,44,45,45,46,46,47,47,48,48,49,49],"right_children":[2,4,6,8,10,12,14,16,18,20,22,24,26,28,30,-1,32,34,36,38,40,42,44,46,-1,48,50,52,54,-1,-1,56,-1,58,-1,-1,-1,60,62,64,66,68,70,72,74,76,78,80,82,84,-1,-1,-1,-1,-1,-1,-1,-1,-1,-1,-1,-1,-1,-1,-1,-1,-1,-1,-1,-1,-1,-1,-1,-1,-1,-1,-1,-1,-1,-1,-1,-1,-1,-1,-1],"split_conditions":[6.642E-3,4.7434783E-3,8.819119E-3,9.509E-1,5.497857E-3,8.148824E-3,9.404706E-3,1.11E0,2.5282E0,5.288922E-3,5.777872E-3,7.878667E-3,1.7141858E-1,9.046E-3,9.887632E-3,5.008528E0,1.68E0,4.1E-1,2.8496016E1,5.073032E-3,5.402476E-3,5.6063808E-3,6.0774195E-3,2.8498125E1,-1.1701423E0,8.40037E-3,8.707603E-3,8.930563E-3,9.193359E-3,-1.9338702E0,-2.2150965E0,1.22E0,2.4322393E0,9.999766E-1,3.1499727E0,2.1070564E0,2.5904262E0,4.959048E-3,5.2070953E-3,5.3513334E-3,5.4523963E-3,5.5485712E-3,5.6769606E-3,5.9211426E-3,6.306667E-3,1.40037E1,1.95E0,8.266391E-3,8.481499E-3,8.644952E-3,-1.5690407E0,-1.6215953E0,-1.6733807E0,-1.7284603E0,-1.7992855E0,2.598052E0,3.8979561E0,2.4124258E0,4.0301776E0,1.8153385E0,1.5995698E0,1.3988041E0,1.2564849E0,1.1627264E0,1.0898658E0,1.026874E0,9.667594E-1,9.106078E-1,8.4512705E-1,7.734821E-1,6.8221605E-1,5.5136937E-1,3.8886142E-1,2.1576364E-1,-5.491349E-2,-8.444461E-1,-9.9838173E-1,-4.3809763E-1,-6.8915915E-1,-1.2809988E0,-1.3490709E0,-1.4073881E0,-1.4510726E0,-1.4945526E0,-1.5275552E0],"split_indices":[1,1,1,3,1,1,1,4,3,1,1,1,8,1,1,0,4,4,0,1,1,1,1,0,0,1,1,1,1,0,0,4,0,7,0,0,0,1,1,1,1,1,1,1,1,3,4,1,1,1,0,0,0,0,0,0,0,0,0,0,0,0,0,0,0,0,0,0,0,0,0,0,0,0,0,0,0,0,0,0,0,0,0,0,0],"split_type":[0,0,0,0,0,0,0,0,0,0,0,0,0,0,0,0,0,0,0,0,0,0,0,0,0,0,0,0,0,0,0,0,0,0,0,0,0,0,0,0,0,0,0,0,0,0,0,0,0,0,0,0,0,0,0,0,0,0,0,0,0,0,0,0,0,0,0,0,0,0,0,0,0,0,0,0,0,0,0,0,0,0,0,0,0],"sum_hessian":[1.65934E5,1.03643E5,6.2291E4,6.9E2,1.02953E5,2.9826E4,3.2465E4,1.73E2,5.17E2,5.3063E4,4.989E4,1.319E3,2.8507E4,3.0523E4,1.942E3,1.25E2,4.8E1,1.43E2,3.74E2,8.403E3,4.466E4,4.471E4,5.18E3,6.61E2,6.58E2,7.098E3,2.1409E4,2.0188E4,1.0335E4,1.313E3,6.29E2,3.6E1,1.2E1,4.5E1,9.8E1,5E1,3.24E2,1.282E3,7.121E3,1.6891E4,2.7769E4,2.7767E4,1.6943E4,3.882E3,1.298E3,3.11E2,3.5E2,1.935E3,5.163E3,9.74E3,1.1669E4,1.1077E4,9.111E3,7.097E3,3.238E3,1.1E1,2.5E1,8E0,3.7E1,6.32E2,6.5E2,2.56E3,4.561E3,7.139E3,9.752E3,1.3584E4,1.4185E4,1.4869E4,1.2898E4,1.1084E4,5.859E3,2.627E3,1.255E3,6.59E2,6.39E2,1.98E2,1.13E2,2.36E2,1.14E2,6.28E2,1.307E3,1.95E3,3.213E3,4.526E3,5.214E3],"tree_param":{"num_deleted":"0","num_feature":"9","num_nodes":"85","size_leaf_vector":"1"}},{"base_weights":[-3.5132628E-2,1.8214539E1,-3.0362263E1,6.0865505E1,1.7938293E1,-2.8249317E1,-3.2378563E1,8.523995E1,5.2813175E1,2.0912363E1,1.4998823E1,-1.796146E1,-2.8707354E1,-3.1979294E1,-3.8470467E1,4.6947246E0,6.2366604E1,6.3726185E1,4.8052998E1,2.658584E1,1.9994572E1,1.5879528E1,7.984988E0,-1.3520954E1,-1.1156756E0,-2.6820536E1,-2.9389587E1,-3.1287868E1,-3.3266006E1,-3.6693043E1,-4.216158E1,3.354719E0,2.0177765E0,2.6029212E0,6.8229904E1,2.1565692E0,2.51454E0,3.247586E1,2.5243067E1,2.1508648E1,1.9059704E1,1.6886448E1,1.43252E1,9.7876215E0,1.5440847E0,-1.7339733E1,-9.73059E0,-2.5510553E1,-1.3736615E0,-2.881546E1,-1.4932674E0,-1.5435724E0,-1.5915524E0,-1.6420202E0,-1.7094631E0,-1.7813734E0,-1.8843157E0,-2.2820008E0,-2.0474985E0,3.9920144E0,3.0772042E0,1.7255249E0,1.5175484E0,1.3764873E0,1.2291517E0,1.1185018E0,1.0439388E0,9.825088E-1,9.259904E-1,8.724033E-1,8.120945E-1,7.453862E-1,6.6412526E-1,5.544625E-1,4.021822E-1,2.0387743E-1,-5.6361057E-2,-9.3421215E-1,-7.820595E-1,-4.0590978E-1,-6.397092E-1,-1.2385062E0,-1.3106182E0,-1.4228332E0,-1.4527322E0],"categories":[],"categories_nodes":[],"categories_segments":[],"categories_sizes":[],"default_left":[0,0,0,0,0,0,0,0,0,0,0,0,0,0,0,0,0,0,0,0,0,0,0,0,0,0,0,0,0,0,0,0,0,0,0,0,0,0,0,0,0,0,0,0,0,0,0,0,0,0,0,0,0,0,0,0,0,0,0,0,0,0,0,0,0,0,0,0,0,0,0,0,0,0,0,0,0,0,0,0,0,0,0,0,0],"id":10,"left_children":[1,3,5,7,9,11,13,15,17,19,21,23,25,27,29,-1,31,33,35,37,39,41,43,45,-1,47,49,51,53,55,57,-1,-1,-1,59,-1,-1,61,63,65,67,69,71,73,75,77,79,81,-1,83,-1,-1,-1,-1,-1,-1,-1,-1,-1,-1,-1,-1,-1,-1,-1,-1,-1,-1,-1,-1,-1,-1,-1,-1,-1,-1,-1,-1,-1,-1,-1,-1,-1,-1,-1],"loss_changes":[9.194357E7,1.220872E6,2.64976E5,1.2639725E5,9.00548E5,1.43126E5,7.6424E4,2.659375E4,2.3108375E4,2.6617E5,3.20024E5,2.4856219E4,3.677E4,2.5616E4,1.129775E4,0E0,2.2766719E3,4.3183125E3,1.731375E3,5.5558E4,6.1996E4,7.182E4,6.713941E4,9.193625E3,0E0,5.93E3,4.986E3,3.424E3,2.981E3,5.775E1,7.77625E2,0E0,0E0,0E0,3.2227812E3,0E0,0E0,4.652875E3,8.08725E3,8.657E3,8.326E3,9.8265E3,1.079875E4,1.0167031E4,8.572744E3,4.3739062E2,1.509332E3,6.94E2,0E0,3.5E0,0E0,0E0,0E0,0E0,0E0,0E0,0E0,0E0,0E0,0E0,0E0,0E0,0E0,0E0,0E0,0E0,0E0,0E0,0E0,0E0,0E0,0E0,0E0,0E0,0E0,0E0,0E0,0E0,0E0,0E0,0E0,0E0,0E0,0E0,0E0],"parents":[2147483647,0,0,1,1,2,2,3,3,4,4,5,5,6,6,7,7,8,8,9,9,10,10,11,11,12,12,13,13,14,14,16,16,17,17,18,18,19,19,20,20,21,21,22,22,23,23,25,25,26,26,27,27,28,28,29,29,30,30,34,34,37,37,38,38,39,39,40,40,41,41,42,42,43,43,44,44,45,45,46,46,47,47,49,49],"right_children":[2,4,6,8,10,12,14,16,18,20,22,24,26,28,30,-1,32,34,36,38,40,42,44,46,-1,48,50,52,54,56,58,-1,-1,-1,60,-1,-1,62,64,66,68,70,72,74,76,78,80,82,-1,84,-1,-1,-1,-1,-1,-1,-1,-1,-1,-1,-1,-1,-1,-1,-1,-1,-1,-1,-1,-1,-1,-1,-1,-1,-1,-1,-1,-1,-1,-1,-1,-1,-1,-1,-1],"split_conditions":[1.3284E-1,9.486956E-2,1.7651428E-1,9.509E-1,1.0984E-1,1.6297647E-1,1.8809412E-1,1.11E0,2.5282E0,1.05440214E-1,1.1515238E-1,1.5757333E-1,1.7169231E-1,1.8092E-1,1.9775262E-1,4.6947246E0,3E0,6E0,2.849753E1,1.01460636E-1,1.0793143E-1,1.1192428E-1,1.21548384E-1,9.999344E-1,-1.1156756E0,1.6872333E-1,1.7429239E-1,1.7875463E-1,1.8386717E-1,1.9155E-1,3E0,3.354719E0,2.0177765E0,2.6029212E0,4.1E-1,2.1565692E0,2.51454E0,9.918095E-2,1.0318809E-1,1.0685192E-1,1.0891048E-1,1.1083145E-1,1.1331105E-1,1.1744E-1,1.2613334E-1,2.849632E1,1.95E0,1.668625E-1,-1.3736615E0,1.7289905E-1,-1.4932674E0,-1.5435724E0,-1.5915524E0,-1.6420202E0,-1.7094631E0,-1.7813734E0,-1.8843157E0,-2.2820008E0,-2.0474985E0,3.9920144E0,3.0772042E0,1.7255249E0,1.5175484E0,1.3764873E0,1.2291517E0,1.1185018E0,1.0439388E0,9.825088E-1,9.259904E-1,8.724033E-1,8.120945E-1,7.453862E-1,6.6412526E-1,5.544625E-1,4.021822E-1,2.0387743E-1,-5.6361057E-2,-9.3421215E-1,-7.820595E-1,-4.0590978E-1,-6.397092E-1,-1.2385062E0,-1.3106182E0,-1.4228332E0,-1.4527322E0],"split_indices":[8,8,8,3,8,8,8,4,3,8,8,8,8,8,8,0,5,5,0,8,8,8,8,7,0,8,8,8,8,8,5,0,0,0,4,0,0,8,8,8,8,8,8,8,8,0,4,8,0,8,0,0,0,0,0,0,0,0,0,0,0,0,0,0,0,0,0,0,0,0,0,0,0,0,0,0,0,0,0,0,0,0,0,0,0],"split_type":[0,0,0,0,0,0,0,0,0,0,0,0,0,0,0,0,0,0,0,0,0,0,0,0,0,0,0,0,0,0,0,0,0,0,0,0,0,0,0,0,0,0,0,0,0,0,0,0,0,0,0,0,0,0,0,0,0,0,0,0,0,0,0,0,0,0,0,0,0,0,0,0,0,0,0,0,0,0,0,0,0,0,0,0,0],"sum_hessian":[1.66123E5,1.03713E5,6.241E4,6.66E2,1.03047E5,3.0482E4,3.1928E4,1.63E2,5.03E2,5.1219E4,5.1828E4,1.301E3,2.9181E4,2.997E4,1.958E3,1.16E2,4.7E1,1.49E2,3.54E2,7.128E3,4.4091E4,4.6045E4,5.783E3,6.46E2,6.55E2,7.76E3,2.1421E4,1.9511E4,1.0459E4,1.329E3,6.29E2,3.7E1,1E1,4.5E1,1.04E2,1.17E2,2.37E2,1.319E3,5.809E3,1.6823E4,2.7268E4,2.7937E4,1.8108E4,4.518E3,1.265E3,3.2E2,3.26E2,2.594E3,5.166E3,9.735E3,1.1686E4,1.1077E4,8.434E3,7.184E3,3.275E3,6.59E2,6.7E2,1.53E2,4.76E2,3.4E1,7E1,6.66E2,6.53E2,1.292E3,4.517E3,7.091E3,9.732E3,1.3007E4,1.4261E4,1.4915E4,1.3022E4,1.1609E4,6.499E3,2.584E3,1.934E3,6.49E2,6.16E2,1.73E2,1.47E2,2.16E2,1.1E2,1.28E3,1.314E3,3.942E3,5.793E3],"tree_param":{"num_deleted":"0","num_feature":"9","num_nodes":"85","size_leaf_vector":"1"}},{"base_weights":[-4.3799976E-4,1.7317028E1,-2.8836197E1,5.89758E1,1.7042778E1,-2.6352493E1,-3.0395773E1,4.964295E1,8.2859505E1,1.9450731E1,1.3723826E1,-1.2844982E1,-2.6738663E1,-2.9907265E1,-3.4729042E1,5.9741436E1,4.567374E1,4.484158E0,3.5520947E0,2.3818085E1,1.8377638E1,1.4501466E1,5.866217E0,-1.6457684E1,-9.373183E0,-2.3930815E1,-2.7292522E1,-2.9144764E1,-3.0898157E1,-3.3646564E1,-4.0029728E1,2.0816195E0,3.183908E0,2.3615346E0,1.994702E0,2.9510395E1,2.2672194E1,1.9562231E1,1.7475899E1,1.533677E1,1.2664304E1,8.120766E0,1.4414787E0,-8.5735816E-1,-7.240028E-1,-7.939854E0,-1.2121107E1,-2.2167002E1,-2.4804062E1,-2.6403294E1,-2.7735168E1,-1.4361224E0,-1.4780915E0,-1.523898E0,-1.5771798E0,-1.6539452E0,-1.7915745E0,-2.1211638E0,-1.9315048E0,1.6426712E0,1.3898553E0,1.2030414E0,1.0874074E0,1.0123464E0,9.510466E-1,8.985985E-1,8.488044E-1,7.9398096E-1,7.30576E-1,6.627514E-1,5.676891E-1,4.415423E-1,2.985038E-1,1.9353996E-1,-5.0603475E-2,-6.299332E-1,-3.4732428E-1,-6.238309E-1,-3.7921327E-1,-1.0585269E0,-1.1561414E0,-1.1969978E0,-1.254249E0,-1.3013561E0,-1.3387846E0,-1.3677381E0,-1.3991565E0],"categories":[],"categories_nodes":[],"categories_segments":[],"categories_sizes":[],"default_left":[0,0,0,0,0,0,0,0,0,0,0,0,0,0,0,0,0,0,0,0,0,0,0,0,0,0,0,0,0,0,0,0,0,0,0,0,0,0,0,0,0,0,0,0,0,0,0,0,0,0,0,0,0,0,0,0,0,0,0,0,0,0,0,0,0,0,0,0,0,0,0,0,0,0,0,0,0,0,0,0,0,0,0,0,0,0,0],"id":11,"left_children":[1,3,5,7,9,11,13,15,17,19,21,23,25,27,29,31,33,-1,-1,35,37,39,41,43,45,47,49,51,53,55,57,-1,-1,-1,-1,59,61,63,65,67,69,71,73,-1,-1,75,77,79,81,83,85,-1,-1,-1,-1,-1,-1,-1,-1,-1,-1,-1,-1,-1,-1,-1,-1,-1,-1,-1,-1,-1,-1,-1,-1,-1,-1,-1,-1,-1,-1,-1,-1,-1,-1,-1,-1],"loss_changes":[8.290613E7,1.184086E6,2.405E5,1.4700175E5,8.23308E5,1.25029E5,7.9944E4,1.69015E4,8.8535E3,2.79442E5,2.646935E5,8.24668E3,3.5682E4,2.5078E4,2.08515E4,6.9625625E3,1.310625E3,0E0,0E0,7.6138E4,5.0869E4,6.03125E4,3.893283E4,1.9442969E2,1.2566582E3,5.388E3,6.942E3,2.572E3,3.083E3,2.8015E3,5.34E2,0E0,0E0,0E0,0E0,1.0364E4,1.20565E4,7.288E3,6.4435E3,1.04345E4,9.39225E3,3.8950625E3,7.866044E3,0E0,0E0,9.703213E2,9.046484E1,7.31875E2,1.8875E1,2.09E2,4.56E2,0E0,0E0,0E0,0E0,0E0,0E0,0E0,0E0,0E0,0E0,0E0,0E0,0E0,0E0,0E0,0E0,0E0,0E0,0E0,0E0,0E0,0E0,0E0,0E0,0E0,0E0,0E0,0E0,0E0,0E0,0E0,0E0,0E0,0E0,0E0,0E0],"parents":[2147483647,0,0,1,1,2,2,3,3,4,4,5,5,6,6,7,7,8,8,9,9,10,10,11,11,12,12,13,13,14,14,15,15,16,16,19,19,20,20,21,21,22,22,23,23,24,24,25,25,26,26,27,27,28,28,29,29,30,30,35,35,36,36,37,37,38,38,39,39,40,40,41,41,42,42,45,45,46,46,47,47,48,48,49,49,50,50],"right_children":[2,4,6,8,10,12,14,16,18,20,22,24,26,28,30,32,34,-1,-1,36,38,40,42,44,46,48,50,52,54,56,58,-1,-1,-1,-1,60,62,64,66,68,70,72,74,-1,-1,76,78,80,82,84,86,-1,-1,-1,-1,-1,-1,-1,-1,-1,-1,-1,-1,-1,-1,-1,-1,-1,-1,-1,-1,-1,-1,-1,-1,-1,-1,-1,-1,-1,-1,-1,-1,-1,-1,-1,-1],"split_conditions":[6.642E-3,4.7434783E-3,8.764072E-3,2.8499653E1,5.5186665E-3,7.878667E-3,9.247803E-3,2.5282E0,7.9E-1,5.3233197E-3,5.833854E-3,2.8498125E1,8.461048E-3,8.960375E-3,9.887632E-3,6E0,9.3644E0,4.484158E0,3.5520947E0,5.1273094E-3,5.429619E-3,5.638881E-3,6.0774195E-3,2.8497227E1,1.95E0,8.266391E-3,8.6168945E-3,8.855406E-3,9.083815E-3,9.5775E-3,1.6215E0,2.0816195E0,3.183908E0,2.3615346E0,1.994702E0,4.959048E-3,5.2508335E-3,5.3808093E-3,5.4760715E-3,5.5785715E-3,5.716006E-3,5.9836362E-3,6.306667E-3,-8.5735816E-1,-7.240028E-1,4.1E-1,2.8499653E1,8.148824E-3,8.343125E-3,8.555185E-3,8.685748E-3,-1.4361224E0,-1.4780915E0,-1.523898E0,-1.5771798E0,-1.6539452E0,-1.7915745E0,-2.1211638E0,-1.9315048E0,1.6426712E0,1.3898553E0,1.2030414E0,1.0874074E0,1.0123464E0,9.510466E-1,8.985985E-1,8.488044E-1,7.9398096E-1,7.30576E-1,6.627514E-1,5.676891E-1,4.415423E-1,2.985038E-1,1.9353996E-1,-5.0603475E-2,-6.299332E-1,-3.4732428E-1,-6.238309E-1,-3.7921327E-1,-1.0585269E0,-1.1561414E0,-1.1969978E0,-1.254249E0,-1.3013561E0,-1.3387846E0,-1.3677381E0,-1.3991565E0],"split_indices":[1,1,1,0,1,1,1,3,4,1,1,0,1,1,1,5,3,0,0,1,1,1,1,0,4,1,1,1,1,1,3,0,0,0,0,1,1,1,1,1,1,1,1,0,0,4,0,1,1,1,1,0,0,0,0,0,0,0,0,0,0,0,0,0,0,0,0,0,0,0,0,0,0,0,0,0,0,0,0,0,0,0,0,0,0,0,0],"split_type":[0,0,0,0,0,0,0,0,0,0,0,0,0,0,0,0,0,0,0,0,0,0,0,0,0,0,0,0,0,0,0,0,0,0,0,0,0,0,0,0,0,0,0,0,0,0,0,0,0,0,0,0,0,0,0,0,0,0,0,0,0,0,0,0,0,0,0,0,0,0,0,0,0,0,0,0,0,0,0,0,0,0,0,0,0,0,0],"sum_hessian":[1.66022E5,1.03728E5,6.2294E4,6.77E2,1.03051E5,2.4035E4,3.8259E4,4.89E2,1.88E2,5.9719E4,4.3332E4,6.69E2,2.3366E4,3.439E4,3.869E3,1.34E2,3.55E2,1.15E2,7.3E1,1.1775E4,4.7944E4,3.9429E4,3.903E3,3.26E2,3.43E2,3.857E3,1.9509E4,1.9452E4,1.4938E4,3.219E3,6.5E2,2.6E1,1.08E2,2.74E2,8.1E1,1.969E3,9.806E3,2.0713E4,2.7231E4,2.71E4,1.2329E4,2.585E3,1.318E3,2.36E2,9E1,2.28E2,1.15E2,1.286E3,2.571E3,6.504E3,1.3005E4,9.7E3,9.752E3,9.077E3,5.861E3,2.568E3,6.51E2,2.29E2,4.21E2,6.61E2,1.308E3,3.908E3,5.898E3,9.129E3,1.1584E4,1.3649E4,1.3582E4,1.5487E4,1.1613E4,8.492E3,3.837E3,1.941E3,6.44E2,6.62E2,6.56E2,3.8E1,1.9E2,1.05E2,1E1,6.41E2,6.45E2,6.52E2,1.919E3,3.271E3,3.233E3,5.176E3,7.829E3],"tree_param":{"num_deleted":"0","num_feature":"9","num_nodes":"87","size_leaf_vector":"1"}},{"base_weights":[1.0003502E-2,1.645083E1,-2.7401487E1,5.6249397E1,1.6191977E1,-2.5082027E1,-2.891109E1,4.4113575E1,7.194493E1,1.8614042E1,1.3253142E1,-1.1952763E1,-2.5441027E1,-2.8481352E1,-3.343111E1,1.9138529E0,2.2855089E0,8.087934E1,6.1592335E1,2.3298264E1,1.7717686E1,1.3998011E1,6.2776675E0,-5.708028E0,-1.4107901E1,-2.3176842E1,-2.60636E1,-2.776552E1,-2.9488333E1,-3.2280926E1,-3.8001587E1,4.372317E0,7.206188E1,5.3948246E1,3.343874E0,2.9368889E1,2.2285439E1,1.9007175E1,1.6869299E1,1.4860451E1,1.2426559E1,8.181302E0,1.4372424E0,-6.8608956E0,-1.8449132E-1,-1.6150599E1,-1.1829896E1,-2.1075323E1,-2.3866844E1,-2.5395773E1,-2.6470951E1,-1.3680065E0,-1.4096442E0,-1.4547461E0,-1.5089086E0,-1.5827558E0,-1.7009811E0,-1.9644253E0,-1.7915003E0,3.4084287E0,4.895262E0,2.4668586E0,4.437269E0,1.5626805E0,1.3729603E0,1.1860288E0,1.0625715E0,9.88289E-1,9.2361814E-1,8.7026083E-1,8.189344E-1,7.7032727E-1,7.1265465E-1,6.502711E-1,5.663005E-1,4.393595E-1,2.835345E-1,1.8434133E-1,-5.166015E-2,-2.8540793E-1,-4.4005892E-1,-8.696322E-1,-7.642613E-1,-6.5532637E-1,-5.641164E-1,-1.0071143E0,-1.0979961E0,-1.1570917E0,-1.2112416E0,-1.2483033E0,-1.2815355E0,-1.3108735E0,-1.3359975E0],"categories":[],"categories_nodes":[],"categories_segments":[],"categories_sizes":[],"default_left":[0,0,0,0,0,0,0,0,0,0,0,0,0,0,0,0,0,0,0,0,0,0,0,0,0,0,0,0,0,0,0,0,0,0,0,0,0,0,0,0,0,0,0,0,0,0,0,0,0,0,0,0,0,0,0,0,0,0,0,0,0,0,0,0,0,0,0,0,0,0,0,0,0,0,0,0,0,0,0,0,0,0,0,0,0,0,0,0,0,0,0,0,0],"id":12,"left_children":[1,3,5,7,9,11,13,15,17,19,21,23,25,27,29,-1,-1,31,33,35,37,39,41,43,45,47,49,51,53,55,57,-1,59,61,-1,63,65,67,69,71,73,75,77,79,-1,81,83,85,87,89,91,-1,-1,-1,-1,-1,-1,-1,-1,-1,-1,-1,-1,-1,-1,-1,-1,-1,-1,-1,-1,-1,-1,-1,-1,-1,-1,-1,-1,-1,-1,-1,-1,-1,-1,-1,-1,-1,-1,-1,-1,-1,-1],"loss_changes":[7.490861E7,1.069458E6,2.17468E5,1.246255E5,7.34544E5,1.15529E5,7.2354E4,1.79225E3,2.1920125E4,2.37182E5,2.422575E5,8.746117E3,3.311E4,2.4024E4,1.596175E4,0E0,0E0,2.541875E3,1.995625E3,5.52055E4,5.1644E4,5.6927E4,4.1470516E4,3.691714E2,2.072289E3,6.9865E3,4.425E3,2.716E3,2.999E3,1.76725E3,4.06875E2,0E0,4.5309375E2,5.5557812E3,0E0,3.8005E3,1.105275E4,7.2755E3,7.2475E3,8.8005E3,9.36725E3,4.8635625E3,7.0731826E3,1.8763086E2,0E0,3.890625E0,1.3265625E1,6.14875E2,4.4275E2,7.5E1,2.85E1,0E0,0E0,0E0,0E0,0E0,0E0,0E0,0E0,0E0,0E0,0E0,0E0,0E0,0E0,0E0,0E0,0E0,0E0,0E0,0E0,0E0,0E0,0E0,0E0,0E0,0E0,0E0,0E0,0E0,0E0,0E0,0E0,0E0,0E0,0E0,0E0,0E0,0E0,0E0,0E0,0E0,0E0],"parents":[2147483647,0,0,1,1,2,2,3,3,4,4,5,5,6,6,7,7,8,8,9,9,10,10,11,11,12,12,13,13,14,14,17,17,18,18,19,19,20,20,21,21,22,22,23,23,24,24,25,25,26,26,27,27,28,28,29,29,30,30,32,32,33,33,35,35,36,36,37,37,38,38,39,39,40,40,41,41,42,42,43,43,45,45,46,46,47,47,48,48,49,49,50,50],"right_children":[2,4,6,8,10,12,14,16,18,20,22,24,26,28,30,-1,-1,32,34,36,38,40,42,44,46,48,50,52,54,56,58,-1,60,62,-1,64,66,68,70,72,74,76,78,80,-1,82,84,86,88,90,92,-1,-1,-1,-1,-1,-1,-1,-1,-1,-1,-1,-1,-1,-1,-1,-1,-1,-1,-1,-1,-1,-1,-1,-1,-1,-1,-1,-1,-1,-1,-1,-1,-1,-1,-1,-1,-1,-1,-1,-1,-1,-1],"split_conditions":[6.642E-3,4.7434783E-3,8.7697385E-3,2.8499332E1,5.508241E-3,7.878667E-3,9.279857E-3,2.8496933E1,5.2E-1,5.2965474E-3,5.8051907E-3,1E0,1.6999665E-1,8.976364E-3,9.887632E-3,1.9138529E0,2.2855089E0,3E0,2.8499653E1,5.073032E-3,5.4130713E-3,5.620285E-3,6.0774195E-3,3E0,2.849753E1,1.6533953E-1,8.644952E-3,8.8681085E-3,9.108762E-3,9.5775E-3,1.2E1,4.372317E0,9E0,9E0,3.343874E0,4.959048E-3,5.225054E-3,5.359262E-3,5.4610237E-3,5.5589825E-3,5.6913043E-3,5.9836362E-3,6.306667E-3,1E0,-1.8449132E-1,2.8491802E1,2.8498125E1,8.148824E-3,8.40037E-3,8.57095E-3,1.7429239E-1,-1.3680065E0,-1.4096442E0,-1.4547461E0,-1.5089086E0,-1.5827558E0,-1.7009811E0,-1.9644253E0,-1.7915003E0,3.4084287E0,4.895262E0,2.4668586E0,4.437269E0,1.5626805E0,1.3729603E0,1.1860288E0,1.0625715E0,9.88289E-1,9.2361814E-1,8.7026083E-1,8.189344E-1,7.7032727E-1,7.1265465E-1,6.502711E-1,5.663005E-1,4.393595E-1,2.835345E-1,1.8434133E-1,-5.166015E-2,-2.8540793E-1,-4.4005892E-1,-8.696322E-1,-7.642613E-1,-6.5532637E-1,-5.641164E-1,-1.0071143E0,-1.0979961E0,-1.1570917E0,-1.2112416E0,-1.2483033E0,-1.2815355E0,-1.3108735E0,-1.3359975E0],"split_indices":[1,1,1,0,1,1,1,0,4,1,1,2,8,1,1,0,0,5,0,1,1,1,1,5,0,8,1,1,1,1,5,0,5,5,0,1,1,1,1,1,1,1,1,6,0,0,0,1,1,1,8,0,0,0,0,0,0,0,0,0,0,0,0,0,0,0,0,0,0,0,0,0,0,0,0,0,0,0,0,0,0,0,0,0,0,0,0,0,0,0,0,0,0],"split_type":[0,0,0,0,0,0,0,0,0,0,0,0,0,0,0,0,0,0,0,0,0,0,0,0,0,0,0,0,0,0,0,0,0,0,0,0,0,0,0,0,0,0,0,0,0,0,0,0,0,0,0,0,0,0,0,0,0,0,0,0,0,0,0,0,0,0,0,0,0,0,0,0,0,0,0,0,0,0,0,0,0,0,0,0,0,0,0,0,0,0,0,0,0],"sum_hessian":[1.66215E5,1.03899E5,6.2316E4,6.7E2,1.03229E5,2.4575E4,3.7741E4,3.8E2,2.9E2,5.6587E4,4.6642E4,6.55E2,2.392E4,3.4471E4,3.27E3,8.7E1,2.93E2,1.52E2,1.38E2,9.085E3,4.7502E4,4.2141E4,4.501E3,1.69E2,4.86E2,5.167E3,1.8753E4,2.0165E4,1.4306E4,2.619E3,6.51E2,8.2E1,7E1,6.1E1,7.7E1,1.295E3,7.79E3,1.8842E4,2.866E4,2.7203E4,1.4938E4,3.23E3,1.271E3,1.06E2,6.3E1,2.53E2,2.33E2,1.285E3,3.882E3,7.129E3,1.1624E4,1.0382E4,9.783E3,9.138E3,5.168E3,1.94E3,6.79E2,3.98E2,2.53E2,6.4E1,6E0,5.6E1,5E0,6.44E2,6.51E2,3.253E3,4.537E3,7.776E3,1.1066E4,1.3681E4,1.4979E4,1.4311E4,1.2892E4,9.782E3,5.156E3,2.6E3,6.3E2,6.65E2,6.06E2,6.9E1,3.7E1,9.6E1,1.57E2,6.3E1,1.7E2,6.37E2,6.48E2,1.305E3,2.577E3,2.558E3,4.571E3,5.813E3,5.811E3],"tree_param":{"num_deleted":"0","num_feature":"9","num_nodes":"93","size_leaf_vector":"1"}},{"base_weights":[-3.5932977E-2,1.5610952E1,-2.6024168E1,5.30656E1,1.5367538E1,-2.4055653E1,-2.7626833E1,4.452998E1,7.373463E1,1.7513702E1,1.2347722E1,-1.1551228E1,-2.4354996E1,-2.7248096E1,-3.2277573E1,4.2013317E1,5.3928963E1,4.117048E0,6.0162876E1,2.1492907E1,1.6565004E1,1.3053727E1,5.348567E0,-5.612321E0,-1.3662216E1,-2.2187527E1,-2.494615E1,-2.6606829E1,-2.8247263E1,-3.1006634E1,-3.6155792E1,1.8104893E0,2.1806314E0,4.7805103E1,4.340646E0,5.4800938E1,3.5779839E0,2.660274E1,2.0470926E1,1.7652609E1,1.575211E1,1.3817612E1,1.140811E1,7.356419E0,1.3424916E0,-6.7121363E0,-3.6632123E0,-7.806482E-1,-1.2096939E1,-2.0013506E1,-2.2795069E1,-2.4306076E1,-2.5362797E1,-1.3101037E0,-1.3503525E0,-1.3927273E0,-1.4460474E0,-1.5167736E0,-1.6153135E0,-1.8697113E0,-1.6974038E0,1.9367434E0,2.5198603E0,3.0693011E0,1.9024041E0,1.4770646E0,1.2561504E0,1.0957354E0,9.8711777E-1,9.1182727E-1,8.5672486E-1,8.1094694E-1,7.6530254E-1,7.166182E-1,6.608557E-1,5.948822E-1,5.027721E-1,3.9906397E-1,2.7026945E-1,1.7603166E-1,-4.3214064E-2,-2.9625425E-1,-4.0510637E-1,-1.8979394E-1,-1.2024277E-1,-6.1444163E-1,-2.9056224E-1,-9.5504314E-1,-1.0431147E0,-1.109062E0,-1.1621209E0,-1.195855E0,-1.227173E0,-1.2559724E0,-1.2825445E0],"categories":[],"categories_nodes":[],"categories_segments":[],"categories_sizes":[],"default_left":[0,0,0,0,0,0,0,0,0,0,0,0,0,0,0,0,0,0,0,0,0,0,0,0,0,0,0,0,0,0,0,0,0,0,0,0,0,0,0,0,0,0,0,0,0,0,0,0,0,0,0,0,0,0,0,0,0,0,0,0,0,0,0,0,0,0,0,0,0,0,0,0,0,0,0,0,0,0,0,0,0,0,0,0,0,0,0,0,0,0,0,0,0,0,0],"id":13,"left_children":[1,3,5,7,9,11,13,15,17,19,21,23,25,27,29,31,33,-1,35,37,39,41,43,45,47,49,51,53,55,57,59,-1,-1,61,-1,63,-1,65,67,69,71,73,75,77,79,81,83,-1,85,87,89,91,93,-1,-1,-1,-1,-1,-1,-1,-1,-1,-1,-1,-1,-1,-1,-1,-1,-1,-1,-1,-1,-1,-1,-1,-1,-1,-1,-1,-1,-1,-1,-1,-1,-1,-1,-1,-1,-1,-1,-1,-1,-1,-1],"loss_changes":[6.753882E7,9.44364E5,1.96252E5,1.14731875E5,6.6736E5,1.04599E5,5.9704E4,8.9840625E3,1.76915E4,2.26938E5,2.114025E5,8.1581875E3,3.4503E4,1.963E4,1.16135E4,1.9398125E3,1.537E4,0E0,8.934375E2,5.9965E4,4.2707E4,4.8707E4,3.1544336E4,3.4737158E2,1.2862344E3,7.2965E3,5.11E3,2.428E3,2.475E3,7.18125E2,4.51375E2,0E0,0E0,1.3890625E1,0E0,4.0529375E3,0E0,7.63575E3,9.7255E3,5.973E3,5.545E3,8.013E3,8.04275E3,3.1410781E3,6.3048457E3,7.0930664E1,1.1026611E0,0E0,2.560625E2,5.9759375E2,7.3825E2,1.93E2,2.62E2,0E0,0E0,0E0,0E0,0E0,0E0,0E0,0E0,0E0,0E0,0E0,0E0,0E0,0E0,0E0,0E0,0E0,0E0,0E0,0E0,0E0,0E0,0E0,0E0,0E0,0E0,0E0,0E0,0E0,0E0,0E0,0E0,0E0,0E0,0E0,0E0,0E0,0E0,0E0,0E0,0E0,0E0],"parents":[2147483647,0,0,1,1,2,2,3,3,4,4,5,5,6,6,7,7,8,8,9,9,10,10,11,11,12,12,13,13,14,14,15,15,16,16,18,18,19,19,20,20,21,21,22,22,23,23,24,24,25,25,26,26,27,27,28,28,29,29,30,30,33,33,35,35,37,37,38,38,39,39,40,40,41,41,42,42,43,43,44,44,45,45,46,46,48,48,49,49,50,50,51,51,52,52],"right_children":[2,4,6,8,10,12,14,16,18,20,22,24,26,28,30,32,34,-1,36,38,40,42,44,46,48,50,52,54,56,58,60,-1,-1,62,-1,64,-1,66,68,70,72,74,76,78,80,82,84,-1,86,88,90,92,94,-1,-1,-1,-1,-1,-1,-1,-1,-1,-1,-1,-1,-1,-1,-1,-1,-1,-1,-1,-1,-1,-1,-1,-1,-1,-1,-1,-1,-1,-1,-1,-1,-1,-1,-1,-1,-1,-1,-1,-1,-1,-1],"split_conditions":[6.642E-3,4.7434783E-3,8.800509E-3,2.8499653E1,5.5206907E-3,7.878667E-3,9.320238E-3,2.8499332E1,7.9E-1,5.3233197E-3,5.833854E-3,1E0,8.519227E-3,9.009919E-3,9.887632E-3,2.8496933E1,9E0,4.117048E0,1.39E0,5.1273094E-3,5.429619E-3,5.638881E-3,6.0774195E-3,3E0,2.8496933E1,8.266391E-3,8.67E-3,8.894785E-3,9.138083E-3,9.5775E-3,1.2E1,1.8104893E0,2.1806314E0,6E0,4.340646E0,3E0,3.5779839E0,4.959048E-3,5.2390713E-3,5.384143E-3,5.4760715E-3,5.575571E-3,5.7268334E-3,5.9836362E-3,6.306667E-3,1E0,1.62E0,-7.806482E-1,2.8499653E1,8.148824E-3,8.436167E-3,8.595252E-3,8.745477E-3,-1.3101037E0,-1.3503525E0,-1.3927273E0,-1.4460474E0,-1.5167736E0,-1.6153135E0,-1.8697113E0,-1.6974038E0,1.9367434E0,2.5198603E0,3.0693011E0,1.9024041E0,1.4770646E0,1.2561504E0,1.0957354E0,9.8711777E-1,9.1182727E-1,8.5672486E-1,8.1094694E-1,7.6530254E-1,7.166182E-1,6.608557E-1,5.948822E-1,5.027721E-1,3.9906397E-1,2.7026945E-1,1.7603166E-1,-4.3214064E-2,-2.9625425E-1,-4.0510637E-1,-1.8979394E-1,-1.2024277E-1,-6.1444163E-1,-2.9056224E-1,-9.5504314E-1,-1.0431147E0,-1.109062E0,-1.1621209E0,-1.195855E0,-1.227173E0,-1.2559724E0,-1.2825445E0],"split_indices":[1,1,1,0,1,1,1,0,4,1,1,2,1,1,1,0,5,0,4,1,1,1,1,5,0,1,1,1,1,1,5,0,0,5,0,5,0,1,1,1,1,1,1,1,1,6,4,0,0,1,1,1,1,0,0,0,0,0,0,0,0,0,0,0,0,0,0,0,0,0,0,0,0,0,0,0,0,0,0,0,0,0,0,0,0,0,0,0,0,0,0,0,0,0,0],"split_type":[0,0,0,0,0,0,0,0,0,0,0,0,0,0,0,0,0,0,0,0,0,0,0,0,0,0,0,0,0,0,0,0,0,0,0,0,0,0,0,0,0,0,0,0,0,0,0,0,0,0,0,0,0,0,0,0,0,0,0,0,0,0,0,0,0,0,0,0,0,0,0,0,0,0,0,0,0,0,0,0,0,0,0,0,0,0,0,0,0,0,0,0,0,0,0],"sum_hessian":[1.6609E5,1.03672E5,6.2418E4,6.68E2,1.03004E5,2.8019E4,3.4399E4,4.75E2,1.93E2,6.0209E4,4.2795E4,6.56E2,2.7363E4,3.1815E4,2.584E3,3.79E2,9.6E1,1.15E2,7.8E1,1.1587E4,4.8622E4,3.8873E4,3.922E3,1.73E2,4.83E2,5.872E3,2.1491E4,1.9395E4,1.242E4,1.953E3,6.31E2,8.7E1,2.92E2,8.3E1,1.3E1,5.7E1,2.1E1,1.927E3,9.66E3,2.0788E4,2.7834E4,2.6544E4,1.2329E4,2.612E3,1.31E3,1.09E2,6.4E1,2.11E2,2.72E2,1.29E3,4.582E3,8.497E3,1.2994E4,9.676E3,9.719E3,7.873E3,4.547E3,1.304E3,6.49E2,3.94E2,2.37E2,2.2E1,6.1E1,3.9E1,1.8E1,6.39E2,1.288E3,3.23E3,6.43E3,9.757E3,1.1031E4,1.3583E4,1.4251E4,1.428E4,1.2264E4,9.047E3,3.282E3,1.976E3,6.36E2,6.59E2,6.51E2,7.3E1,3.6E1,5.6E1,8E0,2.63E2,9E0,6.33E2,6.57E2,1.953E3,2.629E3,3.259E3,5.238E3,7.092E3,5.902E3],"tree_param":{"num_deleted":"0","num_feature":"9","num_nodes":"95","size_leaf_vector":"1"}},{"base_weights":[-4.7215216E-2,1.4837288E1,-2.472665E1,5.08599E1,1.4599162E1,-2.3004053E1,-2.6372713E1,3.5650246E0,4.3358486E1,1.6616259E1,1.1696079E1,-1.4620036E1,-2.3376274E1,-2.6048021E1,-3.1340494E1,5.2937862E1,3.906186E1,2.0565414E1,1.5746189E1,1.2370809E1,5.066521E0,-1.1083051E1,-9.089002E-1,-2.1839878E1,-2.3935616E1,-2.551438E1,-2.7152508E1,-1.496988E0,-3.4231983E1,4.8025192E1,6.3212162E1,1.6128378E0,1.9968745E0,2.53075E1,1.9542156E1,1.6834465E1,1.496894E1,1.3069296E1,1.0781746E1,6.9656715E0,1.2671691E0,-5.3779135E0,-1.294665E1,-2.0537052E1,-2.2277462E1,-2.3470816E1,-1.2160629E0,-1.256153E0,-1.2963582E0,-1.3423089E0,-1.3996543E0,-1.797572E0,-1.6464901E0,2.5274353E0,1.5253574E0,2.4860024E0,4.3887267E0,1.4090409E0,1.193006E0,1.0315412E0,9.353296E-1,8.793206E-1,8.220749E-1,7.705596E-1,7.25237E-1,6.771829E-1,6.235776E-1,5.627075E-1,4.778324E-1,3.782848E-1,2.563773E-1,1.6878276E-1,-4.2805523E-2,-3.3366317E-1,-1.9215976E-1,-7.2563976E-1,-5.7376283E-1,-1.0091314E0,-1.0613374E0,-1.0937182E0,-1.1299137E0,-1.1621836E0,-1.1862831E0],"categories":[],"categories_nodes":[],"categories_segments":[],"categories_sizes":[],"default_left":[0,0,0,0,0,0,0,0,0,0,0,0,0,0,0,0,0,0,0,0,0,0,0,0,0,0,0,0,0,0,0,0,0,0,0,0,0,0,0,0,0,0,0,0,0,0,0,0,0,0,0,0,0,0,0,0,0,0,0,0,0,0,0,0,0,0,0,0,0,0,0,0,0,0,0,0,0,0,0,0,0,0,0],"id":14,"left_children":[1,3,5,7,9,11,13,-1,15,17,19,21,23,25,27,29,31,33,35,37,39,41,-1,43,45,47,49,-1,51,53,55,-1,-1,57,59,61,63,65,67,69,71,73,75,77,79,81,-1,-1,-1,-1,-1,-1,-1,-1,-1,-1,-1,-1,-1,-1,-1,-1,-1,-1,-1,-1,-1,-1,-1,-1,-1,-1,-1,-1,-1,-1,-1,-1,-1,-1,-1,-1,-1],"loss_changes":[6.101426E7,8.88E5,1.76576E5,1.0116375E5,6.0254E5,9.4968E4,5.071E4,0E0,1.8502438E4,2.08344E5,1.88707E5,1.6168E4,2.4603E4,1.6982E4,6.886875E3,4.6251875E3,7.84125E2,5.26885E4,4.1844E4,4.237E4,2.8130953E4,6.8925625E3,0E0,3.994E3,3.266E3,2.612E3,1.755E3,0E0,2.220625E2,3.1799531E3,1.0866422E4,0E0,0E0,7.39875E3,7.815E3,5.832E3,5.7355E3,7.3715E3,6.66225E3,2.8275469E3,5.8275957E3,2.973452E2,9.669375E2,5.0875E1,2.5625E2,7.5E0,0E0,0E0,0E0,0E0,0E0,0E0,0E0,0E0,0E0,0E0,0E0,0E0,0E0,0E0,0E0,0E0,0E0,0E0,0E0,0E0,0E0,0E0,0E0,0E0,0E0,0E0,0E0,0E0,0E0,0E0,0E0,0E0,0E0,0E0,0E0,0E0,0E0],"parents":[2147483647,0,0,1,1,2,2,3,3,4,4,5,5,6,6,8,8,9,9,10,10,11,11,12,12,13,13,14,14,15,15,16,16,17,17,18,18,19,19,20,20,21,21,23,23,24,24,25,25,26,26,28,28,29,29,30,30,33,33,34,34,35,35,36,36,37,37,38,38,39,39,40,40,41,41,42,42,43,43,44,44,45,45],"right_children":[2,4,6,8,10,12,14,-1,16,18,20,22,24,26,28,30,32,34,36,38,40,42,-1,44,46,48,50,-1,52,54,56,-1,-1,58,60,62,64,66,68,70,72,74,76,78,80,82,-1,-1,-1,-1,-1,-1,-1,-1,-1,-1,-1,-1,-1,-1,-1,-1,-1,-1,-1,-1,-1,-1,-1,-1,-1,-1,-1,-1,-1,-1,-1,-1,-1,-1,-1,-1,-1],"split_conditions":[6.642E-3,4.7434783E-3,8.825715E-3,9.509E-1,5.5228095E-3,8.148824E-3,9.404706E-3,3.5650246E0,2.5282E0,5.3172754E-3,5.833854E-3,7.878667E-3,8.584585E-3,9.055677E-3,9.887632E-3,9E0,2.8496016E1,5.1273094E-3,5.4273847E-3,5.6426954E-3,6.0774195E-3,1E0,-9.089002E-1,8.40037E-3,8.714714E-3,8.930563E-3,9.218214E-3,-1.496988E0,6E0,1.6215E0,9.999766E-1,1.6128378E0,1.9968745E0,4.959048E-3,5.2508335E-3,5.366976E-3,5.478E-3,5.581262E-3,5.7268334E-3,5.9836362E-3,6.306667E-3,9.509E-1,2.8497227E1,8.343125E-3,8.499976E-3,8.662285E-3,-1.2160629E0,-1.256153E0,-1.2963582E0,-1.3423089E0,-1.3996543E0,-1.797572E0,-1.6464901E0,2.5274353E0,1.5253574E0,2.4860024E0,4.3887267E0,1.4090409E0,1.193006E0,1.0315412E0,9.353296E-1,8.793206E-1,8.220749E-1,7.705596E-1,7.25237E-1,6.771829E-1,6.235776E-1,5.627075E-1,4.778324E-1,3.782848E-1,2.563773E-1,1.6878276E-1,-4.2805523E-2,-3.3366317E-1,-1.9215976E-1,-7.2563976E-1,-5.7376283E-1,-1.0091314E0,-1.0613374E0,-1.0937182E0,-1.1299137E0,-1.1621836E0,-1.1862831E0],"split_indices":[1,1,1,3,1,1,1,0,3,1,1,1,1,1,1,5,0,1,1,1,1,2,0,1,1,1,1,0,5,3,7,0,0,1,1,1,1,1,1,1,1,3,0,1,1,1,0,0,0,0,0,0,0,0,0,0,0,0,0,0,0,0,0,0,0,0,0,0,0,0,0,0,0,0,0,0,0,0,0,0,0,0,0],"split_type":[0,0,0,0,0,0,0,0,0,0,0,0,0,0,0,0,0,0,0,0,0,0,0,0,0,0,0,0,0,0,0,0,0,0,0,0,0,0,0,0,0,0,0,0,0,0,0,0,0,0,0,0,0,0,0,0,0,0,0,0,0,0,0,0,0,0,0,0,0,0,0,0,0,0,0,0,0,0,0,0,0,0,0],"sum_hessian":[1.66095E5,1.03608E5,6.2487E4,6.79E2,1.02929E5,3.0541E4,3.1946E4,1.8E2,4.99E2,6.0729E4,4.22E4,1.3E3,2.9241E4,2.9992E4,1.954E3,1.51E2,3.48E2,1.096E4,4.9769E4,3.8301E4,3.899E3,6.54E2,6.46E2,7.815E3,2.1426E4,2.0238E4,9.754E3,1.324E3,6.3E2,1.06E2,4.5E1,4.4E1,3.04E2,1.941E3,9.019E3,2.0727E4,2.9042E4,2.6601E4,1.17E4,2.599E3,1.3E3,1.62E2,4.92E2,1.977E3,5.838E3,9.744E3,1.1682E4,1.0421E4,9.817E3,7.173E3,2.581E3,2.6E2,3.7E2,9.1E1,1.5E1,3.1E1,1.4E1,6.44E2,1.297E3,3.906E3,5.113E3,7.099E3,1.3628E4,1.4856E4,1.4186E4,1.4819E4,1.1782E4,8.438E3,3.262E3,1.957E3,6.42E2,6.52E2,6.48E2,8.6E1,7.6E1,2.34E2,2.58E2,1.326E3,6.51E2,2.618E3,3.22E3,5.201E3,4.543E3],"tree_param":{"num_deleted":"0","num_feature":"9","num_nodes":"83","size_leaf_vector":"1"}},{"base_weights":[3.2663138E-3,1.4101177E1,-2.3490456E1,4.7542526E1,1.3879296E1,-2.1589579E1,-2.4848024E1,4.000091E1,6.661977E1,1.607716E1,1.1477212E1,-1.0379263E1,-2.1886053E1,-2.4470469E1,-2.8640268E1,3.6255585E1,4.713719E1,3.717669E0,2.678131E0,2.0387203E1,1.5348945E1,1.2193043E1,6.122639E0,-5.244278E0,-1.222618E1,-1.9712936E1,-2.2357529E1,-2.3870111E1,-2.5320679E1,-2.7676954E1,-3.2562897E1,1.5834495E0,3.7315327E1,1.696171E0,4.9238754E1,2.5227604E1,1.9390121E1,1.6494366E1,1.4599308E1,1.2943161E1,1.100764E1,7.5440493E0,1.1948172E0,-6.3905435E0,-1.5916954E-1,-1.3448541E1,-9.934542E0,-1.8050396E1,-2.0343756E1,-2.1668333E1,-2.271411E1,-1.1771294E0,-1.2121776E0,-1.2489171E0,-1.2938622E0,-1.3567848E0,-1.4612325E0,-1.7609652E0,-1.5832478E0,1.5095886E0,1.9126488E0,2.848911E0,2.2315223E0,1.3375716E0,1.1840881E0,1.0476654E0,9.3608254E-1,8.578777E-1,7.9996556E-1,7.516216E-1,7.074741E-1,6.688151E-1,6.222312E-1,5.698969E-1,5.0611544E-1,4.1447505E-1,2.8252378E-1,1.5705957E-1,-3.9169054E-2,-2.9685077E-1,-4.2369857E-1,-7.5893E-1,-6.4014065E-1,-5.047064E-1,-2.664453E-1,-8.612523E-1,-9.421424E-1,-9.7411364E-1,-1.0273042E0,-1.0633658E0,-1.0946674E0,-1.1248263E0,-1.1502558E0],"categories":[],"categories_nodes":[],"categories_segments":[],"categories_sizes":[],"default_left":[0,0,0,0,0,0,0,0,0,0,0,0,0,0,0,0,0,0,0,0,0,0,0,0,0,0,0,0,0,0,0,0,0,0,0,0,0,0,0,0,0,0,0,0,0,0,0,0,0,0,0,0,0,0,0,0,0,0,0,0,0,0,0,0,0,0,0,0,0,0,0,0,0,0,0,0,0,0,0,0,0,0,0,0,0,0,0,0,0,0,0,0,0],"id":15,"left_children":[1,3,5,7,9,11,13,15,17,19,21,23,25,27,29,31,33,-1,-1,35,37,39,41,43,45,47,49,51,53,55,57,-1,59,-1,61,63,65,67,69,71,73,75,77,79,-1,81,83,85,87,89,91,-1,-1,-1,-1,-1,-1,-1,-1,-1,-1,-1,-1,-1,-1,-1,-1,-1,-1,-1,-1,-1,-1,-1,-1,-1,-1,-1,-1,-1,-1,-1,-1,-1,-1,-1,-1,-1,-1,-1,-1,-1,-1],"loss_changes":[5.49498E7,7.68684E5,1.60024E5,9.5589875E4,5.43618E5,8.595E4,5.1252E4,1.14326875E4,1.53925625E4,1.68498E5,1.885785E5,6.2883438E3,2.5437E4,1.6238E4,1.1487E4,4.008125E2,2.9310938E3,0E0,0E0,3.701125E4,3.9268E4,3.84585E4,4.0658E4,4.0155518E2,1.24225E3,4.361E3,4.603E3,1.793E3,1.948E3,1.413E3,4.07125E2,0E0,5.74875E2,0E0,2.4757812E3,2.4801875E3,6.34175E3,5.6965E3,5.205E3,5.571E3,5.69875E3,6.3122812E3,5.011954E3,5.5966797E1,0E0,1.5813281E2,7.329297E1,4.89375E2,1.64375E2,1.705E2,3.425E2,0E0,0E0,0E0,0E0,0E0,0E0,0E0,0E0,0E0,0E0,0E0,0E0,0E0,0E0,0E0,0E0,0E0,0E0,0E0,0E0,0E0,0E0,0E0,0E0,0E0,0E0,0E0,0E0,0E0,0E0,0E0,0E0,0E0,0E0,0E0,0E0,0E0,0E0,0E0,0E0,0E0,0E0],"parents":[2147483647,0,0,1,1,2,2,3,3,4,4,5,5,6,6,7,7,8,8,9,9,10,10,11,11,12,12,13,13,14,14,15,15,16,16,19,19,20,20,21,21,22,22,23,23,24,24,25,25,26,26,27,27,28,28,29,29,30,30,32,32,34,34,35,35,36,36,37,37,38,38,39,39,40,40,41,41,42,42,43,43,45,45,46,46,47,47,48,48,49,49,50,50],"right_children":[2,4,6,8,10,12,14,16,18,20,22,24,26,28,30,32,34,-1,-1,36,38,40,42,44,46,48,50,52,54,56,58,-1,60,-1,62,64,66,68,70,72,74,76,78,80,-1,82,84,86,88,90,92,-1,-1,-1,-1,-1,-1,-1,-1,-1,-1,-1,-1,-1,-1,-1,-1,-1,-1,-1,-1,-1,-1,-1,-1,-1,-1,-1,-1,-1,-1,-1,-1,-1,-1,-1,-1,-1,-1,-1,-1,-1,-1],"split_conditions":[6.642E-3,4.7434783E-3,8.782016E-3,2.8499653E1,5.5E-3,7.878667E-3,9.279857E-3,2.8499027E1,7.4E-1,5.280262E-3,5.757619E-3,1E0,1.6962905E-1,8.984952E-3,9.887632E-3,2.849632E1,6E0,3.717669E0,2.678131E0,5.073032E-3,5.405263E-3,5.603238E-3,6.0774195E-3,3E0,2.8498125E1,8.266391E-3,8.636096E-3,8.88106E-3,9.108762E-3,9.5775E-3,3E0,1.5834495E0,1.5E1,1.696171E0,1.6215E0,4.959048E-3,5.18636E-3,5.3513334E-3,5.4567135E-3,5.5485712E-3,5.6769606E-3,5.9211426E-3,6.306667E-3,1.61E0,-1.5916954E-1,2.8490013E1,2.8499653E1,8.148824E-3,8.343125E-3,8.555185E-3,8.7275235E-3,-1.1771294E0,-1.2121776E0,-1.2489171E0,-1.2938622E0,-1.3567848E0,-1.4612325E0,-1.7609652E0,-1.5832478E0,1.5095886E0,1.9126488E0,2.848911E0,2.2315223E0,1.3375716E0,1.1840881E0,1.0476654E0,9.3608254E-1,8.578777E-1,7.9996556E-1,7.516216E-1,7.074741E-1,6.688151E-1,6.222312E-1,5.698969E-1,5.0611544E-1,4.1447505E-1,2.8252378E-1,1.5705957E-1,-3.9169054E-2,-2.9685077E-1,-4.2369857E-1,-7.5893E-1,-6.4014065E-1,-5.047064E-1,-2.664453E-1,-8.612523E-1,-9.421424E-1,-9.7411364E-1,-1.0273042E0,-1.0633658E0,-1.0946674E0,-1.1248263E0,-1.1502558E0],"split_indices":[1,1,1,0,1,1,1,0,4,1,1,2,8,1,1,0,5,0,0,1,1,1,1,5,0,1,1,1,1,1,5,0,5,0,3,1,1,1,1,1,1,1,1,4,0,0,0,1,1,1,1,0,0,0,0,0,0,0,0,0,0,0,0,0,0,0,0,0,0,0,0,0,0,0,0,0,0,0,0,0,0,0,0,0,0,0,0,0,0,0,0,0,0],"split_type":[0,0,0,0,0,0,0,0,0,0,0,0,0,0,0,0,0,0,0,0,0,0,0,0,0,0,0,0,0,0,0,0,0,0,0,0,0,0,0,0,0,0,0,0,0,0,0,0,0,0,0,0,0,0,0,0,0,0,0,0,0,0,0,0,0,0,0,0,0,0,0,0,0,0,0,0,0,0,0,0,0,0,0,0,0,0,0,0,0,0,0,0,0],"sum_hessian":[1.65903E5,1.03685E5,6.2218E4,6.82E2,1.03003E5,2.5929E4,3.6289E4,4.91E2,1.91E2,5.3785E4,4.9218E4,6.69E2,2.526E4,3.301E4,3.279E3,3.26E2,1.65E2,1.17E2,7.4E1,7.77E3,4.6015E4,4.3413E4,5.805E3,1.78E2,4.91E2,4.511E3,2.0749E4,1.9365E4,1.3645E4,2.639E3,6.4E2,6.7E1,2.59E2,2.5E1,1.4E2,1.323E3,6.447E3,1.8194E4,2.7821E4,2.6582E4,1.6831E4,4.505E3,1.3E3,1.13E2,6.5E1,3.17E2,1.74E2,1.249E3,3.262E3,7.096E3,1.3653E4,1.0351E4,9.014E3,8.477E3,5.168E3,1.969E3,6.7E2,1.52E2,4.88E2,3.4E1,2.25E2,4.8E1,9.2E1,6.58E2,6.65E2,1.922E3,4.525E3,7.762E3,1.0432E4,1.4157E4,1.3664E4,1.421E4,1.2372E4,1.1673E4,5.158E3,3.23E3,1.275E3,6.55E2,6.45E2,9.6E1,1.7E1,8E1,2.37E2,1.67E2,7E0,6.23E2,6.26E2,6.39E2,2.623E3,2.585E3,4.511E3,7.857E3,5.796E3],"tree_param":{"num_deleted":"0","num_feature":"9","num_nodes":"93","size_leaf_vector":"1"}},{"base_weights":[-1.1091617E-2,1.3394757E1,-2.2307947E1,4.5250076E1,1.3182494E1,-2.0332237E1,-2.3494562E1,3.785541E1,6.302934E1,1.4992273E1,1.055131E1,-9.8417635E0,-2.0643356E1,-2.3117682E1,-2.6870615E1,4.573145E1,3.5038715E1,3.0287087E0,3.8256688E0,1.842908E1,1.4180155E1,1.1167942E1,4.5064235E0,-4.942582E0,-1.154299E1,-1.850024E1,-2.108959E1,-2.2505606E1,-2.3887238E1,-2.6054258E1,-3.090352E1,3.9026684E1,5.6781555E1,3.630778E1,1.5297121E0,2.2125858E1,1.737541E1,1.5107427E1,1.34700575E1,1.1871771E1,9.884236E0,6.2531285E0,1.0522553E0,-6.330552E0,-3.415281E0,-1.27460575E1,-9.103554E0,-1.7124613E1,-1.9181995E1,-2.0432465E1,-2.1434664E1,-1.1091449E0,-1.1413281E0,-1.1766573E0,-1.218632E0,-1.2810708E0,-1.388427E0,-1.6954483E0,-1.506306E0,1.5515108E0,2.0830483E0,2.2255337E0,4.0383162E0,1.701573E0,1.9309613E0,1.272403E0,1.0514894E0,9.115369E-1,8.368849E-1,7.837602E-1,7.346723E-1,6.9236577E-1,6.53565E-1,6.155607E-1,5.716321E-1,5.1932466E-1,4.4395342E-1,3.4077075E-1,2.2924638E-1,1.4815864E-1,-4.5673322E-2,-2.7644977E-1,-3.7843868E-1,-1.3888884E-1,-2.0908831E-1,-6.754929E-1,-5.6476754E-1,-5.0628227E-1,-3.9048544E-1,-8.180322E-1,-8.9351827E-1,-9.2535824E-1,-9.6969193E-1,-1.0073326E0,-1.0356897E0,-1.0567507E0,-1.080243E0],"categories":[],"categories_nodes":[],"categories_segments":[],"categories_sizes":[],"default_left":[0,0,0,0,0,0,0,0,0,0,0,0,0,0,0,0,0,0,0,0,0,0,0,0,0,0,0,0,0,0,0,0,0,0,0,0,0,0,0,0,0,0,0,0,0,0,0,0,0,0,0,0,0,0,0,0,0,0,0,0,0,0,0,0,0,0,0,0,0,0,0,0,0,0,0,0,0,0,0,0,0,0,0,0,0,0,0,0,0,0,0,0,0,0,0,0,0],"id":16,"left_children":[1,3,5,7,9,11,13,15,17,19,21,23,25,27,29,31,33,-1,-1,35,37,39,41,43,45,47,49,51,53,55,57,59,61,63,-1,65,67,69,71,73,75,77,79,81,83,85,87,89,91,93,95,-1,-1,-1,-1,-1,-1,-1,-1,-1,-1,-1,-1,-1,-1,-1,-1,-1,-1,-1,-1,-1,-1,-1,-1,-1,-1,-1,-1,-1,-1,-1,-1,-1,-1,-1,-1,-1,-1,-1,-1,-1,-1,-1,-1,-1,-1],"loss_changes":[4.963342E7,7.00586E5,1.4569E5,8.77935E4,4.90382E5,7.6176E4,4.8926E4,9.193375E3,1.9726875E3,1.70082E5,1.564425E5,5.5755E3,2.1342E4,1.5964E4,1.20455E4,7.0355E3,9.299375E2,0E0,0E0,4.5037E4,3.2302E4,3.43015E4,2.3450594E4,3.5049805E2,1.3521172E3,3.349E3,3.8215E3,1.513E3,2.087E3,1.69775E3,4.954375E2,4.0625E2,9.636656E3,1.359375E2,0E0,8.865875E3,4.644E3,4.7975E3,4.0245E3,4.60425E3,6.71975E3,2.389539E3,4.912438E3,4.71604E1,2.9710876E1,2.1390234E2,1.4261816E2,4.5053125E2,1.125E1,1.0075E2,1.67E2,0E0,0E0,0E0,0E0,0E0,0E0,0E0,0E0,0E0,0E0,0E0,0E0,0E0,0E0,0E0,0E0,0E0,0E0,0E0,0E0,0E0,0E0,0E0,0E0,0E0,0E0,0E0,0E0,0E0,0E0,0E0,0E0,0E0,0E0,0E0,0E0,0E0,0E0,0E0,0E0,0E0,0E0,0E0,0E0,0E0,0E0],"parents":[2147483647,0,0,1,1,2,2,3,3,4,4,5,5,6,6,7,7,8,8,9,9,10,10,11,11,12,12,13,13,14,14,15,15,16,16,19,19,20,20,21,21,22,22,23,23,24,24,25,25,26,26,27,27,28,28,29,29,30,30,31,31,32,32,33,33,35,35,36,36,37,37,38,38,39,39,40,40,41,41,42,42,43,43,44,44,45,45,46,46,47,47,48,48,49,49,50,50],"right_children":[2,4,6,8,10,12,14,16,18,20,22,24,26,28,30,32,34,-1,-1,36,38,40,42,44,46,48,50,52,54,56,58,60,62,64,-1,66,68,70,72,74,76,78,80,82,84,86,88,90,92,94,96,-1,-1,-1,-1,-1,-1,-1,-1,-1,-1,-1,-1,-1,-1,-1,-1,-1,-1,-1,-1,-1,-1,-1,-1,-1,-1,-1,-1,-1,-1,-1,-1,-1,-1,-1,-1,-1,-1,-1,-1,-1,-1,-1,-1,-1,-1],"split_conditions":[1.3284E-1,9.486956E-2,1.7515905E-1,2.8499653E1,1.1045619E-1,1.5757333E-1,1.8495606E-1,2.5282E0,1E0,1.0646639E-1,1.1667708E-1,1E0,1.6922095E-1,1.7905375E-1,1.9775262E-1,9E0,9.3644E0,3.0287087E0,3.8256688E0,1.0318809E-1,1.08639345E-1,1.1262739E-1,1.21548384E-1,9.509E-1,9.999344E-1,1.6533953E-1,1.7233789E-1,1.7699239E-1,1.8148226E-1,1.9155E-1,9.509E-1,6E0,9.999766E-1,1E0,1.5297121E0,9.918095E-2,1.0524238E-1,1.0761619E-1,1.096E-1,1.1139714E-1,1.1412678E-1,1.1967273E-1,1.2613334E-1,1E0,1E0,2.8496933E1,9E0,1.6297647E-1,1.668625E-1,1.711037E-1,1.7355952E-1,-1.1091449E0,-1.1413281E0,-1.1766573E0,-1.218632E0,-1.2810708E0,-1.388427E0,-1.6954483E0,-1.506306E0,1.5515108E0,2.0830483E0,2.2255337E0,4.0383162E0,1.701573E0,1.9309613E0,1.272403E0,1.0514894E0,9.115369E-1,8.368849E-1,7.837602E-1,7.346723E-1,6.9236577E-1,6.53565E-1,6.155607E-1,5.716321E-1,5.1932466E-1,4.4395342E-1,3.4077075E-1,2.2924638E-1,1.4815864E-1,-4.5673322E-2,-2.7644977E-1,-3.7843868E-1,-1.3888884E-1,-2.0908831E-1,-6.754929E-1,-5.6476754E-1,-5.0628227E-1,-3.9048544E-1,-8.180322E-1,-8.9351827E-1,-9.2535824E-1,-9.6969193E-1,-1.0073326E0,-1.0356897E0,-1.0567507E0,-1.080243E0],"split_indices":[8,8,8,0,8,8,8,3,2,8,8,2,8,8,8,5,3,0,0,8,8,8,8,3,7,8,8,8,8,8,3,5,7,6,0,8,8,8,8,8,8,8,8,6,6,0,5,8,8,8,8,0,0,0,0,0,0,0,0,0,0,0,0,0,0,0,0,0,0,0,0,0,0,0,0,0,0,0,0,0,0,0,0,0,0,0,0,0,0,0,0,0,0,0,0,0,0],"split_type":[0,0,0,0,0,0,0,0,0,0,0,0,0,0,0,0,0,0,0,0,0,0,0,0,0,0,0,0,0,0,0,0,0,0,0,0,0,0,0,0,0,0,0,0,0,0,0,0,0,0,0,0,0,0,0,0,0,0,0,0,0,0,0,0,0,0,0,0,0,0,0,0,0,0,0,0,0,0,0,0,0,0,0,0,0,0,0,0,0,0,0,0,0,0,0,0,0],"sum_hessian":[1.66047E5,1.03699E5,6.2348E4,6.85E2,1.03014E5,2.3402E4,3.8946E4,4.86E2,1.99E2,6.1031E4,4.1983E4,6.75E2,2.2727E4,3.5042E4,3.904E3,1.24E2,3.62E2,1.73E2,2.6E1,1.1661E4,4.937E4,3.8096E4,3.887E3,1.75E2,5E2,3.924E3,1.8803E4,1.9535E4,1.5507E4,3.253E3,6.51E2,8E1,4.4E1,2.76E2,8.6E1,2.582E3,9.079E3,2.1402E4,2.7968E4,2.46E4,1.3496E4,2.581E3,1.306E3,9E1,8.5E1,3.32E2,1.68E2,1.309E3,2.615E3,6.495E3,1.2308E4,9.776E3,9.759E3,8.995E3,6.512E3,2.61E3,6.43E2,1.25E2,5.26E2,2.3E1,5.7E1,3.1E1,1.3E1,1.47E2,1.29E2,6.35E2,1.947E3,3.866E3,5.213E3,9.009E3,1.2393E4,1.4354E4,1.3614E4,1.2282E4,1.2318E4,8.993E3,4.503E3,1.928E3,6.53E2,6.62E2,6.44E2,5.8E1,3.2E1,4.9E1,3.6E1,2.12E2,1.2E2,9E1,7.8E1,6.58E2,6.51E2,6.46E2,1.969E3,3.258E3,3.237E3,4.504E3,7.804E3],"tree_param":{"num_deleted":"0","num_feature":"9","num_nodes":"97","size_leaf_vector":"1"}},{"base_weights":[1.9609476E-2,1.2739283E1,-2.119374E1,4.469713E1,1.2526869E1,-1.9520407E1,-2.2444925E1,5.8713028E1,3.52101E1,1.4689697E1,1.0539896E1,-9.205123E0,-1.9777662E1,-2.2143688E1,-2.6303654E1,6.559109E1,2.4572196E0,4.0185078E1,3.321183E1,1.857832E1,1.4032251E1,1.1188484E1,5.812868E0,-4.343888E0,-1.0809787E1,-1.7927557E1,-2.0240057E1,-2.1631163E1,-2.3011944E1,-2.5284163E1,-2.9453934E1,5.1320305E1,6.8290016E1,1.2567376E0,4.295871E1,1.0527043E0,3.3734825E1,2.2786663E1,1.7645056E1,1.5066726E1,1.3388131E1,1.1928639E1,1.0177227E1,7.360168E0,2.087309E0,-5.1430473E0,-2.8846128E0,-8.503304E0,-1.19295635E1,-1.629222E1,-1.8476725E1,-1.9716293E1,-2.0591629E1,-1.0653006E0,-1.0997988E0,-1.134421E0,-1.1781014E0,-1.235294E0,-1.3196536E0,-1.5247146E0,-1.3809143E0,1.2255201E0,2.9366038E0,3.224305E0,4.0437636E0,1.9833583E0,3.3315492E0,1.3790406E0,1.7342285E0,1.2044221E0,1.0707163E0,9.450132E-1,8.5081416E-1,7.8186315E-1,7.307373E-1,6.885552E-1,6.501516E-1,6.164417E-1,5.763811E-1,5.319069E-1,4.7713834E-1,3.9230984E-1,3.0659607E-1,1.7797665E-1,-3.8693573E-2,-2.112131E-1,-3.4943956E-1,-1.5041082E-1,-9.194187E-2,-4.8179683E-1,-3.4682795E-1,-6.752197E-1,-5.5705845E-1,-7.795991E-1,-8.48275E-1,-8.9487803E-1,-9.377478E-1,-9.68692E-1,-9.9639386E-1,-1.0207059E0,-1.0415595E0],"categories":[],"categories_nodes":[],"categories_segments":[],"categories_sizes":[],"default_left":[0,0,0,0,0,0,0,0,0,0,0,0,0,0,0,0,0,0,0,0,0,0,0,0,0,0,0,0,0,0,0,0,0,0,0,0,0,0,0,0,0,0,0,0,0,0,0,0,0,0,0,0,0,0,0,0,0,0,0,0,0,0,0,0,0,0,0,0,0,0,0,0,0,0,0,0,0,0,0,0,0,0,0,0,0,0,0,0,0,0,0,0,0,0,0,0,0,0,0,0,0],"id":17,"left_children":[1,3,5,7,9,11,13,15,17,19,21,23,25,27,29,31,-1,33,35,37,39,41,43,45,47,49,51,53,55,57,59,61,63,-1,65,-1,67,69,71,73,75,77,79,81,83,85,87,89,91,93,95,97,99,-1,-1,-1,-1,-1,-1,-1,-1,-1,-1,-1,-1,-1,-1,-1,-1,-1,-1,-1,-1,-1,-1,-1,-1,-1,-1,-1,-1,-1,-1,-1,-1,-1,-1,-1,-1,-1,-1,-1,-1,-1,-1,-1,-1,-1,-1,-1,-1],"loss_changes":[4.4803136E7,7.0408E5,1.29868E5,8.9007125E4,4.42995E5,7.0498E4,4.08E4,1.48638125E4,2.7439375E3,1.25958E5,1.647195E5,5.021953E3,2.1865E4,1.4197E4,7.513625E3,2.530375E3,0E0,3.6305E3,1.1854375E3,2.76245E4,2.7939E4,3.52515E4,3.7378375E4,1.7445142E2,1.1568945E3,4.37E3,3.417E3,1.993E3,1.64E3,5.93875E2,3.4175E2,4.3146797E3,9.4575E2,0E0,4.670625E3,0E0,7.029375E2,1.7876875E3,4.28875E3,3.94575E3,3.6585E3,4.234E3,5.739125E3,2.6863594E3,8.027462E3,1.4572412E2,1.7393799E0,2.207539E2,2.5183984E2,3.5315625E2,2.8725E2,2.1675E2,9.85E1,0E0,0E0,0E0,0E0,0E0,0E0,0E0,0E0,0E0,0E0,0E0,0E0,0E0,0E0,0E0,0E0,0E0,0E0,0E0,0E0,0E0,0E0,0E0,0E0,0E0,0E0,0E0,0E0,0E0,0E0,0E0,0E0,0E0,0E0,0E0,0E0,0E0,0E0,0E0,0E0,0E0,0E0,0E0,0E0,0E0,0E0,0E0,0E0],"parents":[2147483647,0,0,1,1,2,2,3,3,4,4,5,5,6,6,7,7,8,8,9,9,10,10,11,11,12,12,13,13,14,14,15,15,17,17,18,18,19,19,20,20,21,21,22,22,23,23,24,24,25,25,26,26,27,27,28,28,29,29,30,30,31,31,32,32,34,34,36,36,37,37,38,38,39,39,40,40,41,41,42,42,43,43,44,44,45,45,46,46,47,47,48,48,49,49,50,50,51,51,52,52],"right_children":[2,4,6,8,10,12,14,16,18,20,22,24,26,28,30,32,-1,34,36,38,40,42,44,46,48,50,52,54,56,58,60,62,64,-1,66,-1,68,70,72,74,76,78,80,82,84,86,88,90,92,94,96,98,100,-1,-1,-1,-1,-1,-1,-1,-1,-1,-1,-1,-1,-1,-1,-1,-1,-1,-1,-1,-1,-1,-1,-1,-1,-1,-1,-1,-1,-1,-1,-1,-1,-1,-1,-1,-1,-1,-1,-1,-1,-1,-1,-1,-1,-1,-1,-1,-1],"split_conditions":[1.3284E-1,9.486956E-2,1.7576492E-1,1.6215E0,1.0972334E-1,1.5757333E-1,1.8640476E-1,7.4E-1,3.2215E0,1.05440214E-1,1.1479206E-1,1E0,1.6999665E-1,1.8019839E-1,1.9775262E-1,2.8499653E1,2.4572196E0,9E0,1.5E1,1.01460636E-1,1.0787143E-1,1.11688E-1,1.1967273E-1,3E0,3.2215E0,1.6533953E-1,1.7324705E-1,1.7789571E-1,1.8276167E-1,1.9155E-1,1.2E1,6E0,1E0,1.2567376E0,2.8499332E1,1.0527043E0,2.8496016E1,9.918095E-2,1.037272E-1,1.0685192E-1,1.0886667E-1,1.10589415E-1,1.12933844E-1,1.1744E-1,1.2613334E-1,1E0,1.62E0,9E0,2.8491802E1,1.6297647E-1,1.680074E-1,1.7169231E-1,1.7479458E-1,-1.0653006E0,-1.0997988E0,-1.134421E0,-1.1781014E0,-1.235294E0,-1.3196536E0,-1.5247146E0,-1.3809143E0,1.2255201E0,2.9366038E0,3.224305E0,4.0437636E0,1.9833583E0,3.3315492E0,1.3790406E0,1.7342285E0,1.2044221E0,1.0707163E0,9.450132E-1,8.5081416E-1,7.8186315E-1,7.307373E-1,6.885552E-1,6.501516E-1,6.164417E-1,5.763811E-1,5.319069E-1,4.7713834E-1,3.9230984E-1,3.0659607E-1,1.7797665E-1,-3.8693573E-2,-2.112131E-1,-3.4943956E-1,-1.5041082E-1,-9.194187E-2,-4.8179683E-1,-3.4682795E-1,-6.752197E-1,-5.5705845E-1,-7.795991E-1,-8.48275E-1,-8.9487803E-1,-9.377478E-1,-9.68692E-1,-9.9639386E-1,-1.0207059E0,-1.0415595E0],"split_indices":[8,8,8,3,8,8,8,4,3,8,8,2,8,8,8,0,0,5,5,8,8,8,8,5,3,8,8,8,8,8,5,5,2,0,0,0,0,8,8,8,8,8,8,8,8,6,4,5,0,8,8,8,8,0,0,0,0,0,0,0,0,0,0,0,0,0,0,0,0,0,0,0,0,0,0,0,0,0,0,0,0,0,0,0,0,0,0,0,0,0,0,0,0,0,0,0,0,0,0,0,0],"split_type":[0,0,0,0,0,0,0,0,0,0,0,0,0,0,0,0,0,0,0,0,0,0,0,0,0,0,0,0,0,0,0,0,0,0,0,0,0,0,0,0,0,0,0,0,0,0,0,0,0,0,0,0,0,0,0,0,0,0,0,0,0,0,0,0,0,0,0,0,0,0,0,0,0,0,0,0,0,0,0,0,0,0,0,0,0,0,0,0,0,0,0,0,0,0,0,0,0,0,0,0,0],"sum_hessian":[1.66042E5,1.03802E5,6.224E4,6.84E2,1.03118E5,2.6635E4,3.5605E4,2.74E2,4.1E2,4.9371E4,5.3747E4,6.49E2,2.5986E4,3.3033E4,2.572E3,1.56E2,1.18E2,1.12E2,2.98E2,7.136E3,4.2235E4,4.7261E4,6.486E3,1.62E2,4.87E2,5.204E3,2.0782E4,2.0788E4,1.2245E4,1.95E3,6.22E2,2.8E1,1.28E2,1.9E1,9.3E1,1.4E1,2.84E2,1.291E3,5.845E3,1.6198E4,2.6037E4,2.7282E4,1.9979E4,4.582E3,1.904E3,1.03E2,5.9E1,1.62E2,3.25E2,1.316E3,3.888E3,8.37E3,1.2412E4,1.1023E4,9.765E3,7.737E3,4.508E3,1.297E3,6.53E2,3.87E2,2.35E2,7E0,2.1E1,1.03E2,2.5E1,8.4E1,9E0,4.2E1,2.42E2,6.54E2,6.37E2,1.941E3,3.904E3,7.145E3,9.053E3,1.3037E4,1.3E4,1.364E4,1.3642E4,1.1563E4,8.416E3,3.279E3,1.303E3,1.257E3,6.47E2,7.1E1,3.2E1,5.1E1,8E0,9.1E1,7.1E1,1.03E2,2.22E2,6.57E2,6.59E2,1.283E3,2.605E3,3.232E3,5.138E3,7.179E3,5.233E3],"tree_param":{"num_deleted":"0","num_feature":"9","num_nodes":"101","size_leaf_vector":"1"}},{"base_weights":[2.7214022E-2,1.2099748E1,-2.014554E1,4.1873974E1,1.1903963E1,-1.876174E1,-2.1521984E1,3.2064823E1,5.4274353E1,1.374069E1,9.783269E0,-1.1925349E1,-1.90601E1,-2.1244429E1,-2.5606829E1,3.2694485E1,1.245159E0,6.4846924E1,4.4749588E1,1.7161312E1,1.3068806E1,1.0374341E1,4.9354E0,-1.3734645E1,-7.345158E0,-1.779356E1,-1.9509888E1,-2.0779E1,-2.208462E1,-1.222063E0,-2.7981304E1,1.5391334E0,3.4460102E1,3.077344E0,3.81264E0,2.2695088E0,1.0363094E0,2.1651947E1,1.6395302E1,1.4011323E1,1.2448228E1,1.1003698E1,9.268816E0,6.2335415E0,9.857067E-1,-1.1545058E1,-7.426672E-1,-4.6423674E0,-9.427417E0,-1.691217E1,-9.116974E-1,-9.530937E-1,-1.9786283E1,-1.0232086E0,-1.0535877E0,-1.0873581E0,-1.1317528E0,-1.2972136E0,-1.4460336E0,2.2848456E0,1.6703959E0,1.1486677E0,1.0160844E0,8.8509226E-1,7.873453E-1,7.26738E-1,6.806412E-1,6.416486E-1,6.0407674E-1,5.692104E-1,5.27184E-1,4.8080632E-1,4.208024E-1,3.4625503E-1,2.4144971E-1,1.3402824E-1,-3.6053617E-2,-6.5947527E-1,-5.4254746E-1,-2.8621936E-1,-1.6942857E-1,-4.258847E-1,-6.838915E-1,-8.2220143E-1,-8.684352E-1,-9.7666544E-1,-9.9687165E-1],"categories":[],"categories_nodes":[],"categories_segments":[],"categories_sizes":[],"default_left":[0,0,0,0,0,0,0,0,0,0,0,0,0,0,0,0,0,0,0,0,0,0,0,0,0,0,0,0,0,0,0,0,0,0,0,0,0,0,0,0,0,0,0,0,0,0,0,0,0,0,0,0,0,0,0,0,0,0,0,0,0,0,0,0,0,0,0,0,0,0,0,0,0,0,0,0,0,0,0,0,0,0,0,0,0,0,0],"id":18,"left_children":[1,3,5,7,9,11,13,15,17,19,21,23,25,27,29,31,-1,33,35,37,39,41,43,45,47,49,51,53,55,-1,57,-1,59,-1,-1,-1,-1,61,63,65,67,69,71,73,75,77,-1,79,81,83,-1,-1,85,-1,-1,-1,-1,-1,-1,-1,-1,-1,-1,-1,-1,-1,-1,-1,-1,-1,-1,-1,-1,-1,-1,-1,-1,-1,-1,-1,-1,-1,-1,-1,-1,-1,-1],"loss_changes":[4.0425796E7,6.04855E5,1.17966E5,8.0721125E4,4.01724E5,6.2998E4,3.4769E4,8.9809375E2,2.7096125E4,1.2683E5,1.37164E5,1.0661734E4,1.6569E4,1.0946E4,4.782375E3,1.0403125E2,0E0,5.250625E2,1.5148438E3,3.0851E4,2.6853E4,2.9593E4,2.6685672E4,2.1038906E3,2.0371543E3,2.71375E3,2.332E3,1.2965E3,1.4325E3,0E0,4.765E2,0E0,4.9904688E2,0E0,0E0,0E0,0E0,1.847375E3,6.2875E3,3.6245E3,3.775E3,4.6375E3,4.505E3,3.7710469E3,3.7308813E3,2.1858984E2,0E0,2.0082227E2,6.855488E2,2.690625E2,0E0,0E0,1.24E2,0E0,0E0,0E0,0E0,0E0,0E0,0E0,0E0,0E0,0E0,0E0,0E0,0E0,0E0,0E0,0E0,0E0,0E0,0E0,0E0,0E0,0E0,0E0,0E0,0E0,0E0,0E0,0E0,0E0,0E0,0E0,0E0,0E0,0E0],"parents":[2147483647,0,0,1,1,2,2,3,3,4,4,5,5,6,6,7,7,8,8,9,9,10,10,11,11,12,12,13,13,14,14,15,15,17,17,18,18,19,19,20,20,21,21,22,22,23,23,24,24,25,25,26,26,27,27,28,28,30,30,32,32,37,37,38,38,39,39,40,40,41,41,42,42,43,43,44,44,45,45,47,47,48,48,49,49,52,52],"right_children":[2,4,6,8,10,12,14,16,18,20,22,24,26,28,30,32,-1,34,36,38,40,42,44,46,48,50,52,54,56,-1,58,-1,60,-1,-1,-1,-1,62,64,66,68,70,72,74,76,78,-1,80,82,84,-1,-1,86,-1,-1,-1,-1,-1,-1,-1,-1,-1,-1,-1,-1,-1,-1,-1,-1,-1,-1,-1,-1,-1,-1,-1,-1,-1,-1,-1,-1,-1,-1,-1,-1,-1,-1],"split_conditions":[1.3284E-1,9.486956E-2,1.7662142E-1,9.999766E-1,1.1008167E-1,1.6297647E-1,1.8809412E-1,1.32145E1,5.2E-1,1.05930954E-1,1.1555745E-1,2.8498125E1,1.7169231E-1,1.8092E-1,1.9775262E-1,1E0,1.245159E0,1E0,2.02E0,1.01460636E-1,1.082083E-1,1.1226571E-1,1.21548384E-1,1.5757333E-1,1E0,1.6872333E-1,1.7400381E-1,1.7848143E-1,1.8345703E-1,-1.222063E0,2.849753E1,1.5391334E0,2.5282E0,3.077344E0,3.81264E0,2.2695088E0,1.0363094E0,9.918095E-2,1.04141906E-1,1.07185245E-1,1.0917683E-1,1.1112424E-1,1.1382609E-1,1.1842286E-1,1.2613334E-1,2.84906E1,-7.426672E-1,9.509E-1,1.5757333E-1,1.668625E-1,-9.116974E-1,-9.530937E-1,1.7503381E-1,-1.0232086E0,-1.0535877E0,-1.0873581E0,-1.1317528E0,-1.2972136E0,-1.4460336E0,2.2848456E0,1.6703959E0,1.1486677E0,1.0160844E0,8.8509226E-1,7.873453E-1,7.26738E-1,6.806412E-1,6.416486E-1,6.0407674E-1,5.692104E-1,5.27184E-1,4.8080632E-1,4.208024E-1,3.4625503E-1,2.4144971E-1,1.3402824E-1,-3.6053617E-2,-6.5947527E-1,-5.4254746E-1,-2.8621936E-1,-1.6942857E-1,-4.258847E-1,-6.838915E-1,-8.2220143E-1,-8.684352E-1,-9.7666544E-1,-9.9687165E-1],"split_indices":[8,8,8,7,8,8,8,3,4,8,8,0,8,8,8,6,0,2,4,8,8,8,8,8,2,8,8,8,8,0,0,0,3,0,0,0,0,8,8,8,8,8,8,8,8,0,0,3,8,8,0,0,8,0,0,0,0,0,0,0,0,0,0,0,0,0,0,0,0,0,0,0,0,0,0,0,0,0,0,0,0,0,0,0,0,0,0],"split_type":[0,0,0,0,0,0,0,0,0,0,0,0,0,0,0,0,0,0,0,0,0,0,0,0,0,0,0,0,0,0,0,0,0,0,0,0,0,0,0,0,0,0,0,0,0,0,0,0,0,0,0,0,0,0,0,0,0,0,0,0,0,0,0,0,0,0,0,0,0,0,0,0,0,0,0,0,0,0,0,0,0,0,0,0,0,0,0],"sum_hessian":[1.65993E5,1.03846E5,6.2147E4,6.77E2,1.03169E5,3.0998E4,3.1149E4,3.8E2,2.97E2,5.5283E4,4.7886E4,1.298E3,2.97E4,2.9173E4,1.976E3,3.46E2,3.4E1,1.38E2,1.59E2,9.072E3,4.6211E4,4.2681E4,5.205E3,9.29E2,3.69E2,7.794E3,2.1906E4,1.879E4,1.0383E4,1.333E3,6.43E2,1.75E2,1.71E2,1.12E2,2.6E1,1.54E2,5E0,1.318E3,7.754E3,1.8338E4,2.7873E4,2.7192E4,1.5489E4,3.917E3,1.288E3,3.18E2,6.11E2,1.62E2,2.07E2,2.61E3,5.184E3,8.385E3,1.3521E4,9.088E3,9.702E3,6.462E3,3.921E3,2.12E2,4.31E2,1.1E1,1.6E2,6.53E2,6.65E2,2.563E3,5.191E3,7.911E3,1.0427E4,1.3585E4,1.4288E4,1.4869E4,1.2323E4,1.0999E4,4.49E3,2.622E3,1.295E3,6.46E2,6.42E2,8.9E1,2.29E2,8.5E1,7.7E1,1.73E2,3.4E1,1.307E3,1.303E3,5.106E3,8.415E3],"tree_param":{"num_deleted":"0","num_feature":"9","num_nodes":"87","size_leaf_vector":"1"}},{"base_weights":[2.2233775E-4,1.1486135E1,-1.913061E1,3.985357E1,1.130028E1,-1.7761593E1,-2.038809E1,5.364172E1,3.0866186E1,1.29608E1,9.18284E0,-8.311593E0,-1.7974096E1,-2.009342E1,-2.373703E1,6.170279E1,4.47952E1,1.284367E0,3.1782177E1,1.6160622E1,1.2315093E1,9.727042E0,4.3122563E0,-1.0762658E1,-5.85733E0,-1.629114E1,-1.8394278E1,-1.963775E1,-2.080373E1,-2.2821398E1,-2.6528166E1,2.225927E0,3.2493374E0,4.5821342E1,1.170319E0,3.0486132E1,3.491751E1,1.9674482E1,1.5288427E1,1.3171342E1,1.1700335E1,1.0342706E1,8.6659565E0,5.681421E0,9.116002E-1,-6.6633576E-1,-1.0359919E1,-4.8061075E0,-7.9824824E0,-1.4685261E1,-1.6752928E1,-1.7895176E1,-1.8710018E1,-9.669676E-1,-9.9474984E-1,-1.0252198E0,-1.06333E0,-1.1154627E0,-1.1910447E0,-1.2886528E0,-2.8672754E1,2.4677966E0,2.0109947E0,1.6526566E0,1.4165325E0,1.5570349E0,1.9249665E0,1.0922782E0,9.273929E-1,8.1595767E-1,7.387234E-1,6.8479747E-1,6.395861E-1,6.028825E-1,5.6801796E-1,5.344615E-1,4.9562916E-1,4.538753E-1,3.9460817E-1,3.1951857E-1,2.2931693E-1,1.24388E-1,-3.401545E-2,-5.354251E-1,-4.4427687E-1,-2.6021814E-1,-1.8861692E-1,-4.532186E-1,-3.1320924E-1,-7.0343435E-1,-7.6485443E-1,-8.1478494E-1,-8.5403347E-1,-8.8121027E-1,-9.0485936E-1,-9.2437124E-1,-9.4474727E-1,-1.3484858E0,-1.6846113E0],"categories":[],"categories_nodes":[],"categories_segments":[],"categories_sizes":[],"default_left":[0,0,0,0,0,0,0,0,0,0,0,0,0,0,0,0,0,0,0,0,0,0,0,0,0,0,0,0,0,0,0,0,0,0,0,0,0,0,0,0,0,0,0,0,0,0,0,0,0,0,0,0,0,0,0,0,0,0,0,0,0,0,0,0,0,0,0,0,0,0,0,0,0,0,0,0,0,0,0,0,0,0,0,0,0,0,0,0,0,0,0,0,0,0,0,0,0,0,0],"id":19,"left_children":[1,3,5,7,9,11,13,15,17,19,21,23,25,27,29,31,33,-1,35,37,39,41,43,45,47,49,51,53,55,57,59,-1,-1,61,-1,63,65,67,69,71,73,75,77,79,81,-1,83,85,87,89,91,93,95,-1,-1,-1,-1,-1,-1,-1,97,-1,-1,-1,-1,-1,-1,-1,-1,-1,-1,-1,-1,-1,-1,-1,-1,-1,-1,-1,-1,-1,-1,-1,-1,-1,-1,-1,-1,-1,-1,-1,-1,-1,-1,-1,-1,-1,-1],"loss_changes":[3.6489424E7,5.46606E5,1.06882E5,8.1981375E4,3.62345E5,5.9759E4,3.1556E4,1.61231875E4,1.1275625E3,1.19172E5,1.20065E5,3.8935352E3,2.0329E4,9.248E3,6.085375E3,4.77075E3,1.7738125E3,0E0,3.3090625E2,2.941775E4,2.51515E4,